{"learner":{"attributes":{"scikit_learn":"{\"_estimator_type\": \"classifier\"}"},"feature_names":["FunctionId","SubmitTime","RTT","InvocationDelay","ResponseDelay","FunctionDuration","ActiveFunctionsAtRequest","ActiveFunctionsAtResponse","maxcpu","avgcpu","p95maxcpu","vmcorecountbucket","vmmemorybucket","ipMin","ipHour","functionTrigger_http","functionTrigger_notification","functionTrigger_sql","functionTrigger_storage","functionTrigger_stream","vmcategory_Delay-insensitive","vmcategory_Interactive","vmcategory_Unkown","hourOfDay_sin","hourOfDay_cos"],"feature_types":["c","int","int","int","int","int","int","int","int","int","int","int","int","int","int","int","int","int","int","int","int","int","int","int","int"],"gradient_booster":{"model":{"cats":{"enc":[{"type":15,"values":[2,3,4,5,6,7,8,9,10,12,13,14,15,16,17,18,19,20,22,23,24,25,26,27,28,29,30,32,33,34,35,36,37,38,39,40,42,43,44,45,46,47,48,49,50]},{"offsets":[],"values":[]},{"offsets":[],"values":[]},{"offsets":[],"values":[]},{"offsets":[],"values":[]},{"offsets":[],"values":[]},{"offsets":[],"values":[]},{"offsets":[],"values":[]},{"offsets":[],"values":[]},{"offsets":[],"values":[]},{"offsets":[],"values":[]},{"offsets":[],"values":[]},{"offsets":[],"values":[]},{"offsets":[],"values":[]},{"offsets":[],"values":[]},{"offsets":[],"values":[]},{"offsets":[],"values":[]},{"offsets":[],"values":[]},{"offsets":[],"values":[]},{"offsets":[],"values":[]},{"offsets":[],"values":[]},{"offsets":[],"values":[]},{"offsets":[],"values":[]},{"offsets":[],"values":[]},{"offsets":[],"values":[]}],"feature_segments":[0,45,45,45,45,45,45,45,45,45,45,45,45,45,45,45,45,45,45,45,45,45,45,45,45,45],"sorted_idx":[0,1,2,3,4,5,6,7,8,9,10,11,12,13,14,15,16,17,18,19,20,21,22,23,24,25,26,27,28,29,30,31,32,33,34,35,36,37,38,39,40,41,42,43,44]},"gbtree_model_param":{"num_parallel_tree":"1","num_trees":"100"},"iteration_indptr":[0,1,2,3,4,5,6,7,8,9,10,11,12,13,14,15,16,17,18,19,20,21,22,23,24,25,26,27,28,29,30,31,32,33,34,35,36,37,38,39,40,41,42,43,44,45,46,47,48,49,50,51,52,53,54,55,56,57,58,59,60,61,62,63,64,65,66,67,68,69,70,71,72,73,74,75,76,77,78,79,80,81,82,83,84,85,86,87,88,89,90,91,92,93,94,95,96,97,98,99,100],"tree_info":[0,0,0,0,0,0,0,0,0,0,0,0,0,0,0,0,0,0,0,0,0,0,0,0,0,0,0,0,0,0,0,0,0,0,0,0,0,0,0,0,0,0,0,0,0,0,0,0,0,0,0,0,0,0,0,0,0,0,0,0,0,0,0,0,0,0,0,0,0,0,0,0,0,0,0,0,0,0,0,0,0,0,0,0,0,0,0,0,0,0,0,0,0,0,0,0,0,0,0,0],"trees":[{"base_weights":[-3.744077E-9,-1.8522136E0,1.9892635E0,1.9556715E0,-1.9821883E0,1.9978666E-1,-1.9175258E-1,1.9942848E-1,1.5080814E0,-1.1644677E0,-1.9862697E0,1.8920197E-1,1.0021533E0,-1.9569893E-1,1.8418428E-1,-1.9997789E-1,-1.9277486E0,4.1858837E-1,1.5322452E0,-9.3482554E-1,-1.9422033E0,7.014661E-2,-5.1418383E-2,1.7091434E-1,5.0481167E-2,-1.1283238E-1,4.7842506E-2,-1.7333321E-1,-1.9628532E-1],"categories":[9,10,11,12,13,14,15,16,17,18,19,20,21,22,23,24,25,26,27,28,29,30,31,32,33,34,35,36,37,38,39,40,41,42,43,44,15,16,17,19,20,21,22,23,24,25,26,27,28,29,30,31,32,33,34,35,36,37,38,39,40,41,42,43,44,25,27,28,29,30,31,32,33,34,35,36,37,38,39,40,41,42,43,44],"categories_nodes":[4,16,20],"categories_segments":[0,36,65],"categories_sizes":[36,29,19],"default_left":[0,0,0,0,1,0,0,0,0,0,0,0,0,0,0,0,1,0,0,0,1,0,0,0,0,0,0,0,0],"id":0,"left_children":[1,3,5,7,9,-1,-1,-1,11,13,15,-1,17,-1,-1,-1,19,21,23,25,27,-1,-1,-1,-1,-1,-1,-1,-1],"loss_changes":[8.2563195E4,5.7468867E3,3.6696875E2,3.6204834E0,3.513672E1,0E0,0E0,0E0,4.816742E0,1.421403E2,4.96875E0,0E0,4.6287994E0,0E0,0E0,0E0,2.863379E1,2.8634512E0,6.914482E-1,9.391741E0,5.6132812E0,0E0,0E0,0E0,0E0,0E0,0E0,0E0,0E0],"parents":[2147483647,0,0,1,1,2,2,3,3,4,4,8,8,9,9,10,10,12,12,16,16,17,17,18,18,19,19,20,20],"right_children":[2,4,6,8,10,-1,-1,-1,12,14,16,-1,18,-1,-1,-1,20,22,24,26,28,-1,-1,-1,-1,-1,-1,-1,-1],"split_conditions":[3.7E2,1.7071E4,1.866E4,1.5E4,1E-45,1.9978666E-1,-1.9175258E-1,1.9942848E-1,8.718E3,1.7071E4,1.7071E4,1.8920197E-1,5.47E2,-1.9569893E-1,1.8418428E-1,-1.9997789E-1,1E-45,1E0,9.388E3,4.56E2,1E-45,7.014661E-2,-5.1418383E-2,1.7091434E-1,5.0481167E-2,-1.1283238E-1,4.7842506E-2,-1.7333321E-1,-1.9628532E-1],"split_indices":[14,24,24,24,0,0,0,0,1,23,23,0,13,0,0,0,0,15,9,13,0,0,0,0,0,0,0,0,0],"split_type":[0,0,0,0,1,0,0,0,0,0,0,0,0,0,0,0,1,0,0,0,1,0,0,0,0,0,0,0,0],"sum_hessian":[2.2406E4,1.1602718E4,1.0803282E4,3.8250043E2,1.1220217E4,1.0780032E4,2.325E1,3.4894186E2,3.3558567E1,5.714564E1,1.1163071E4,1.7521883E1,1.6036686E1,4.55E1,1.1645641E1,9.0425E3,2.1205715E3,8.485196E0,7.5514894E0,3.1369896E1,2.0892017E3,6.7009926E0,1.7842038E0,5.8762407E0,1.6752481E0,2.77694E1,3.6004963E0,1.9560721E2,1.8935945E3],"tree_param":{"num_deleted":"0","num_feature":"25","num_nodes":"29","size_leaf_vector":"1"}},{"base_weights":[2.4028448E-6,-1.6840991E0,1.8089236E0,1.779337E0,-1.8023477E0,1.8167678E-1,-1.7495671E-1,1.8139486E-1,1.3783964E0,-1.0582676E0,-1.8060626E0,1.7281084E-1,9.190561E-1,-1.782703E-1,1.6857938E-1,-1.8185458E-1,-1.752028E0,3.790986E-1,1.4124274E0,-5.9806335E-1,-1.7626835E0,6.4113915E-2,-4.8144456E-2,1.5732102E-1,4.733956E-2,-9.942556E-2,9.240742E-4,-1.5149105E-1,-1.7809495E-1],"categories":[9,10,11,12,13,14,15,16,17,18,19,20,21,22,23,24,25,26,27,28,29,30,31,32,33,34,35,36,37,38,39,40,41,42,43,44,12,14,15,16,17,19,20,21,22,23,24,25,26,27,28,29,30,31,32,33,34,35,36,37,38,39,40,41,42,43,44,23,24,25,27,28,29,30,31,32,33,34,35,36,37,38,39,40,41,42,43,44],"categories_nodes":[4,16,20],"categories_segments":[0,36,67],"categories_sizes":[36,31,21],"default_left":[0,0,0,0,1,0,0,0,0,0,0,0,0,0,0,0,1,0,0,0,1,0,0,0,0,0,0,0,0],"id":1,"left_children":[1,3,5,7,9,-1,-1,-1,11,13,15,-1,17,-1,-1,-1,19,21,23,25,27,-1,-1,-1,-1,-1,-1,-1,-1],"loss_changes":[6.759142E4,4.708914E3,3.0177344E2,2.770874E0,2.8800781E1,0E0,0E0,0E0,3.9295654E0,1.1753697E2,4.2734375E0,0E0,3.988947E0,0E0,0E0,0E0,2.4791016E1,2.445435E0,5.397434E-1,5.000551E0,6.725586E0,0E0,0E0,0E0,0E0,0E0,0E0,0E0,0E0],"parents":[2147483647,0,0,1,1,2,2,3,3,4,4,8,8,9,9,10,10,12,12,16,16,17,17,18,18,19,19,20,20],"right_children":[2,4,6,8,10,-1,-1,-1,12,14,16,-1,18,-1,-1,-1,20,22,24,26,28,-1,-1,-1,-1,-1,-1,-1,-1],"split_conditions":[3.7E2,1.7071E4,1.866E4,1.5E4,1E-45,1.8167678E-1,-1.7495671E-1,1.8139486E-1,8.718E3,1.7071E4,1.7071E4,1.7281084E-1,5.47E2,-1.782703E-1,1.6857938E-1,-1.8185458E-1,1E-45,1E0,9.388E3,1.82E2,1E-45,6.4113915E-2,-4.8144456E-2,1.5732102E-1,4.733956E-2,-9.942556E-2,9.240742E-4,-1.5149105E-1,-1.7809495E-1],"split_indices":[14,24,24,24,0,0,0,0,1,23,23,0,13,0,0,0,0,15,9,13,0,0,0,0,0,0,0,0,0],"split_type":[0,0,0,0,1,0,0,0,0,0,0,0,0,0,0,0,1,0,0,0,1,0,0,0,0,0,0,0,0],"sum_hessian":[2.2185262E4,1.1489051E4,1.0696211E4,3.7884473E2,1.1110206E4,1.0673173E4,2.3037582E1,3.4549524E2,3.3349503E1,5.661456E1,1.1053592E4,1.7366003E1,1.5983498E1,4.5067127E1,1.1547431E1,8.952694E3,2.100897E3,8.475781E0,7.5077167E0,1.9744696E1,2.0811523E3,6.6927567E0,1.7830249E0,5.833535E0,1.6741813E0,1.1563653E1,8.181044E0,1.4865234E2,1.9325E3],"tree_param":{"num_deleted":"0","num_feature":"25","num_nodes":"29","size_leaf_vector":"1"}},{"base_weights":[9.866674E-6,-1.5574303E0,1.6734004E0,1.6458949E0,-1.6668717E0,1.68068E-1,-1.6209239E-1,1.6783124E-1,1.2734485E0,-9.7721255E-1,-1.6703173E0,1.6018267E-1,8.4767556E-1,-1.6504417E-1,1.5642044E-1,-1.6824163E-1,-1.6180555E0,3.4384394E-1,1.3140563E0,-3.1165722E-1,-1.6264946E0,5.871103E-2,-4.5114886E-2,1.4642416E-1,4.442693E-2,-7.4037135E-2,6.682684E-2,-1.2165059E-1,-1.6381858E-1],"categories":[9,10,11,12,13,14,15,16,17,18,19,20,21,22,23,24,25,26,27,28,29,30,31,32,33,34,35,36,37,38,39,40,41,42,43,44,12,13,14,15,16,17,19,20,21,22,23,24,25,26,27,28,29,30,31,32,33,34,35,36,37,38,39,40,41,42,43,44,20,21,22,23,24,25,26,27,28,29,30,31,32,33,34,35,36,37,38,39,40,41,42,43,44],"categories_nodes":[4,16,20],"categories_segments":[0,36,68],"categories_sizes":[36,32,25],"default_left":[0,0,0,0,1,0,0,0,0,0,0,0,0,0,0,0,1,0,0,0,1,0,0,0,0,0,0,0,0],"id":2,"left_children":[1,3,5,7,9,-1,-1,-1,11,13,15,-1,17,-1,-1,-1,19,21,23,25,27,-1,-1,-1,-1,-1,-1,-1,-1],"loss_changes":[5.6338758E4,3.927963E3,2.5263086E2,2.3348389E0,2.4097656E1,0E0,0E0,0E0,3.3682976E0,9.879937E1,4.0878906E0,0E0,3.5058212E0,0E0,0E0,0E0,2.2106445E1,2.0925875E0,4.4572258E-1,6.545135E0,7.774414E0,0E0,0E0,0E0,0E0,0E0,0E0,0E0,0E0],"parents":[2147483647,0,0,1,1,2,2,3,3,4,4,8,8,9,9,10,10,12,12,16,16,17,17,18,18,19,19,20,20],"right_children":[2,4,6,8,10,-1,-1,-1,12,14,16,-1,18,-1,-1,-1,20,22,24,26,28,-1,-1,-1,-1,-1,-1,-1,-1],"split_conditions":[3.7E2,1.7071E4,1.866E4,1.5E4,1E-45,1.68068E-1,-1.6209239E-1,1.6783124E-1,8.718E3,1.7071E4,1.7071E4,1.6018267E-1,5.47E2,-1.6504417E-1,1.5642044E-1,-1.6824163E-1,1E-45,1E0,9.388E3,1.82E2,1E-45,5.871103E-2,-4.5114886E-2,1.4642416E-1,4.442693E-2,-7.4037135E-2,6.682684E-2,-1.2165059E-1,-1.6381858E-1],"split_indices":[14,24,24,24,0,0,0,0,1,23,23,0,13,0,0,0,0,15,9,13,0,0,0,0,0,0,0,0,0],"split_type":[0,0,0,0,1,0,0,0,0,0,0,0,0,0,0,0,1,0,0,0,1,0,0,0,0,0,0,0,0],"sum_hessian":[2.1615158E4,1.1195485E4,1.0419674E4,3.6939285E2,1.0826093E4,1.03971875E4,2.248555E1,3.3659003E2,3.2802807E1,5.5236256E1,1.0770856E4,1.6960117E1,1.5842688E1,4.3945534E1,1.1290723E1,8.720757E3,2.0500996E3,8.450675E0,7.392013E0,1.3401937E1,2.0366978E3,6.6708856E0,1.7797892E0,5.720766E0,1.671247E0,9.493169E0,3.9087677E0,5.9380592E1,1.9773171E3],"tree_param":{"num_deleted":"0","num_feature":"25","num_nodes":"29","size_leaf_vector":"1"}},{"base_weights":[2.6188776E-5,-1.4587344E0,1.5681175E0,1.5415032E0,-1.5613378E0,1.574964E-1,-1.5192895E-1,1.5728712E-1,1.1861044E0,-9.13295E-1,-1.5645787E0,1.4011854E0,6.245453E-1,-1.5467983E-1,1.4667004E-1,-1.5767191E-1,-1.5123012E0,7.407393E-2,1.493084E-1,-2.05627E-1,1.282612E-1,-9.03076E-1,-1.5303794E0,-1.1480123E-1,3.1360656E-2,-1.0219034E-1,9.571112E-2,-1.3768648E-1,-1.5457481E-1],"categories":[9,10,11,12,13,14,15,16,17,18,19,20,21,22,23,24,25,26,27,28,29,30,31,32,33,34,35,36,37,38,39,40,41,42,43,44,19,20,21,22,23,24,25,26,27,28,29,30,31,32,33,34,35,36,37,38,39,40,41,42,43,44,27,28,29,30,31,32,33,34,35,36,37,38,39,40,41,42,43,44],"categories_nodes":[4,16,22],"categories_segments":[0,36,62],"categories_sizes":[36,26,18],"default_left":[0,0,0,0,1,0,0,0,0,0,0,0,0,0,0,0,1,0,0,0,0,0,1,0,0,0,0,0,0],"id":3,"left_children":[1,3,5,7,9,-1,-1,-1,11,13,15,17,19,-1,-1,-1,21,-1,-1,23,-1,25,27,-1,-1,-1,-1,-1,-1],"loss_changes":[4.7597434E4,3.3207832E3,2.1436523E2,2.1139526E0,2.046289E1,0E0,0E0,0E0,3.112793E0,8.409514E1,4.1972656E0,2.942009E-1,6.2447243E0,0E0,0E0,0E0,2.0413574E1,0E0,0E0,3.1505048E0,0E0,1.4123619E1,2.4033203E0,0E0,0E0,0E0,0E0,0E0,0E0],"parents":[2147483647,0,0,1,1,2,2,3,3,4,4,8,8,9,9,10,10,11,11,12,12,16,16,19,19,21,21,22,22],"right_children":[2,4,6,8,10,-1,-1,-1,12,14,16,18,20,-1,-1,-1,22,-1,-1,24,-1,26,28,-1,-1,-1,-1,-1,-1],"split_conditions":[3.7E2,1.7071E4,1.866E4,1.5E4,1E-45,1.574964E-1,-1.5192895E-1,1.5728712E-1,1.2892E4,1.7071E4,1.7071E4,5.115E3,4.56E2,-1.5467983E-1,1.4667004E-1,-1.5767191E-1,1E-45,7.407393E-2,1.493084E-1,8.302E3,1.282612E-1,7.3E2,1E-45,-1.1480123E-1,3.1360656E-2,-1.0219034E-1,9.571112E-2,-1.3768648E-1,-1.5457481E-1],"split_indices":[14,24,24,24,0,0,0,0,6,23,23,2,13,0,0,0,0,0,0,9,0,13,0,0,0,0,0,0,0],"split_type":[0,0,0,0,1,0,0,0,0,0,0,0,0,0,0,0,1,0,0,0,0,0,1,0,0,0,0,0,0],"sum_hessian":[2.0805895E4,1.0778741E4,1.0027154E4,3.559631E2,1.0422778E4,1.0005456E4,2.1697498E1,3.2394547E2,3.2017643E1,5.3271103E1,1.0369507E4,2.2069649E1,9.947993E0,4.2348843E1,1.0922262E1,8.391549E3,1.9779578E3,3.802523E0,1.8267126E1,4.7027955E0,5.245198E0,5.8470985E1,1.9194868E3,1.2404536E0,3.4623415E0,5.5383755E1,3.087231E0,1.8292123E2,1.7365656E3],"tree_param":{"num_deleted":"0","num_feature":"25","num_nodes":"29","size_leaf_vector":"1"}},{"base_weights":[3.9365226E-5,-1.3798422E0,1.4842434E0,1.4573183E0,-1.4769993E0,1.4907494E-1,-1.4369996E-1,1.4888227E-1,1.1079369E0,-8.6157477E-1,-1.48008E0,1.4223574E-1,7.202722E-1,-1.4635342E-1,1.3866577E-1,-1.492567E-1,-1.4265262E0,2.678284E-1,1.1575403E0,-6.863628E-1,-1.4415246E0,-5.3336676E-2,4.775379E-2,1.3123737E-1,3.45985E-2,-8.431686E-2,7.085704E-2,-1.2744384E-1,-1.4603923E-1],"categories":[9,10,11,12,13,14,15,16,17,18,19,20,21,22,23,24,25,26,27,28,29,30,31,32,33,34,35,36,37,38,39,40,41,42,43,44,16,17,19,20,21,22,23,24,25,26,27,28,29,30,31,32,33,34,35,36,37,38,39,40,41,42,43,44,0,1,2,3,4,5,6,7,8,9,10,11,12,13,14,15,16,17,18,19,20,21,22,23,24,25,26,27,28,29,30,31,32,33,34,35,36,37,38,39,27,28,29,30,31,32,33,34,35,36,37,38,39,40,41,42,43,44],"categories_nodes":[4,16,17,20],"categories_segments":[0,36,64,104],"categories_sizes":[36,28,40,18],"default_left":[0,0,0,0,1,0,0,0,0,0,0,0,0,0,0,0,1,1,0,0,1,0,0,0,0,0,0,0,0],"id":4,"left_children":[1,3,5,7,9,-1,-1,-1,11,13,15,-1,17,-1,-1,-1,19,21,23,25,27,-1,-1,-1,-1,-1,-1,-1,-1],"loss_changes":[4.0635766E4,2.8364082E3,1.8382227E2,2.1033936E0,1.7574219E1,0E0,0E0,0E0,2.889389E0,7.22883E1,4.484375E0,0E0,2.9357243E0,0E0,0E0,0E0,2.0023438E1,1.828042E0,5.56448E-1,9.238028E0,3.9848633E0,0E0,0E0,0E0,0E0,0E0,0E0,0E0,0E0],"parents":[2147483647,0,0,1,1,2,2,3,3,4,4,8,8,9,9,10,10,12,12,16,16,17,17,18,18,19,19,20,20],"right_children":[2,4,6,8,10,-1,-1,-1,12,14,16,-1,18,-1,-1,-1,20,22,24,26,28,-1,-1,-1,-1,-1,-1,-1,-1],"split_conditions":[3.7E2,1.7071E4,1.866E4,1.5E4,1E-45,1.4907494E-1,-1.4369996E-1,1.4888227E-1,8.718E3,1.7071E4,1.7071E4,1.4223574E-1,5.47E2,-1.4635342E-1,1.3866577E-1,-1.492567E-1,1E-45,1E-45,9.388E3,5.47E2,1E-45,-5.3336676E-2,4.775379E-2,1.3123737E-1,3.45985E-2,-8.431686E-2,7.085704E-2,-1.2744384E-1,-1.4603923E-1],"split_indices":[14,24,24,24,0,0,0,0,1,23,23,0,13,0,0,0,0,0,9,13,0,0,0,0,0,0,0,0,0],"split_type":[0,0,0,0,1,0,0,0,0,0,0,0,0,0,0,0,1,1,0,0,1,0,0,0,0,0,0,0,0],"sum_hessian":[1.9839434E4,1.0281073E4,9.558361E3,3.399493E2,9.941124E3,9.537609E3,2.0751669E1,3.0883932E2,3.1109978E1,5.0914993E1,9.890209E3,1.5704002E1,1.5405974E1,4.043708E1,1.0477913E1,7.9983804E3,1.8918286E3,8.364099E0,7.041876E0,3.8502777E1,1.8533258E3,1.4149442E0,6.949155E0,5.3953996E0,1.6464758E0,3.4967587E1,3.53519E0,1.9500134E2,1.6583245E3],"tree_param":{"num_deleted":"0","num_feature":"25","num_nodes":"29","size_leaf_vector":"1"}},{"base_weights":[5.731198E-5,-1.3154863E0,1.4160956E0,1.3885106E0,-1.4082255E0,1.4223295E-1,-1.3690172E-1,1.4204971E-1,1.0420734E0,-8.188275E-1,-1.4111792E0,1.3542514E-1,6.6948086E-1,-1.3952892E-1,1.3196382E-1,-1.424244E-1,-1.3554115E0,2.4136558E-1,1.0950333E0,-1.1442713E-1,-1.3643516E0,4.672764E-2,-4.6035536E-2,1.2464988E-1,3.2547608E-2,-5.298422E-2,7.693844E-2,-1.13254085E-1,-1.3869247E-1],"categories":[9,10,11,12,13,14,15,16,17,18,19,20,21,22,23,24,25,26,27,28,29,30,31,32,33,34,35,36,37,38,39,40,41,42,43,44,12,13,14,15,16,17,19,20,21,22,23,24,25,26,27,28,29,30,31,32,33,34,35,36,37,38,39,40,41,42,43,44,24,25,27,28,29,30,31,32,33,34,35,36,37,38,39,40,41,42,43,44],"categories_nodes":[4,16,20],"categories_segments":[0,36,68],"categories_sizes":[36,32,20],"default_left":[0,0,0,0,1,0,0,0,0,0,0,0,0,0,0,0,1,0,0,0,1,0,0,0,0,0,0,0,0],"id":5,"left_children":[1,3,5,7,9,-1,-1,-1,11,13,15,-1,17,-1,-1,-1,19,21,23,25,27,-1,-1,-1,-1,-1,-1,-1,-1],"loss_changes":[3.498223E4,2.443123E3,1.5896875E2,2.102478E0,1.5230469E1,0E0,0E0,0E0,2.708622E0,6.263495E1,4.890625E0,0E0,2.6775155E0,0E0,0E0,0E0,1.9792236E1,1.6945119E0,5.052452E-1,5.5302024E0,7.7702637E0,0E0,0E0,0E0,0E0,0E0,0E0,0E0,0E0],"parents":[2147483647,0,0,1,1,2,2,3,3,4,4,8,8,9,9,10,10,12,12,16,16,17,17,18,18,19,19,20,20],"right_children":[2,4,6,8,10,-1,-1,-1,12,14,16,-1,18,-1,-1,-1,20,22,24,26,28,-1,-1,-1,-1,-1,-1,-1,-1],"split_conditions":[3.7E2,1.7071E4,1.866E4,1.5E4,1E-45,1.4223295E-1,-1.3690172E-1,1.4204971E-1,8.718E3,1.7071E4,1.7071E4,1.3542514E-1,5.47E2,-1.3952892E-1,1.3196382E-1,-1.424244E-1,1E-45,1E0,9.388E3,1.82E2,1E-45,4.672764E-2,-4.6035536E-2,1.2464988E-1,3.2547608E-2,-5.298422E-2,7.693844E-2,-1.13254085E-1,-1.3869247E-1],"split_indices":[14,24,24,24,0,0,0,0,1,23,23,0,13,0,0,0,0,15,9,13,0,0,0,0,0,0,0,0,0],"split_type":[0,0,0,0,1,0,0,0,0,0,0,0,0,0,0,0,1,0,0,0,1,0,0,0,0,0,0,0,0],"sum_hessian":[1.8776773E4,9.733821E3,9.042951E3,3.223083E2,9.411513E3,9.023244E3,1.9707289E1,2.9222662E2,3.0081642E1,4.8315758E1,9.363197E3,1.4934257E1,1.5147386E1,3.8330593E1,9.985167E0,7.566122E3,1.7970752E3,8.332193E0,6.815192E0,1.2952253E1,1.784123E3,6.555747E0,1.7764465E0,5.1765695E0,1.6386228E0,9.083343E0,3.8689106E0,1.6285698E2,1.621266E3],"tree_param":{"num_deleted":"0","num_feature":"25","num_nodes":"29","size_leaf_vector":"1"}},{"base_weights":[7.990881E-5,-1.2621113E0,1.3598422E0,1.3312153E0,-1.351207E0,1.365856E0,-1.3118862E-1,1.3640678E-1,9.8453027E-1,-7.828532E-1,-1.3540583E0,1.1390675E0,1.366791E-1,1.1936833E0,4.7759962E-1,-1.3384156E-1,1.262552E-1,-1.3678978E-1,-1.2953006E0,-2.2710226E-1,1.3336356E-1,5.733598E-1,1.2892595E-1,-2.5416747E-1,1.1108699E-1,-6.895573E-1,-1.315011E0,1.8344983E-2,7.072921E-2,-1.09438576E-1,2.3013128E-2,-8.6405255E-2,6.459316E-2,-1.15295224E-1,-1.3318124E-1],"categories":[9,10,11,12,13,14,15,16,17,18,19,20,21,22,23,24,25,26,27,28,29,30,31,32,33,34,35,36,37,38,39,40,41,42,43,44,19,20,21,22,23,24,25,26,27,28,29,30,31,32,33,34,35,36,37,38,39,40,41,42,43,44,27,28,29,30,31,32,33,34,35,36,37,38,39,40,41,42,43,44],"categories_nodes":[4,18,26],"categories_segments":[0,36,62],"categories_sizes":[36,26,18],"default_left":[0,0,0,0,1,0,0,0,0,0,0,0,0,0,0,0,0,0,1,0,0,0,0,0,0,0,1,0,0,0,0,0,0,0,0],"id":6,"left_children":[1,3,5,7,9,11,-1,-1,13,15,17,19,-1,21,23,-1,-1,-1,25,-1,-1,27,-1,29,-1,31,33,-1,-1,-1,-1,-1,-1,-1,-1],"loss_changes":[3.0318957E4,2.1185898E3,1.3843066E2,2.128479E0,1.3291992E1,2.421875E-1,0E0,0E0,2.6082554E0,5.4626396E1,5.395508E0,3.012233E1,0E0,4.7942924E-1,5.1122713E0,0E0,0E0,0E0,1.9375244E1,0E0,0E0,1.07595086E-1,0E0,2.5505633E0,0E0,1.3523329E1,2.941162E0,0E0,0E0,0E0,0E0,0E0,0E0,0E0,0E0],"parents":[2147483647,0,0,1,1,2,2,3,3,4,4,5,5,8,8,9,9,10,10,11,11,13,13,14,14,18,18,21,21,23,23,25,25,26,26],"right_children":[2,4,6,8,10,12,-1,-1,14,16,18,20,-1,22,24,-1,-1,-1,26,-1,-1,28,-1,30,-1,32,34,-1,-1,-1,-1,-1,-1,-1,-1],"split_conditions":[3.7E2,1.7071E4,1.866E4,1.5E4,1E-45,4.07E2,-1.3118862E-1,1.3640678E-1,1.2892E4,1.7071E4,1.7071E4,4.56E2,1.366791E-1,5.115E3,4.56E2,-1.3384156E-1,1.262552E-1,-1.3678978E-1,1E-45,-2.2710226E-1,1.3336356E-1,5.47E2,1.2892595E-1,8.302E3,1.1108699E-1,6.38E2,1E-45,1.8344983E-2,7.072921E-2,-1.09438576E-1,2.3013128E-2,-8.6405255E-2,6.459316E-2,-1.15295224E-1,-1.3318124E-1],"split_indices":[14,24,24,24,0,14,0,0,6,23,23,13,0,2,13,0,0,0,0,0,0,13,0,9,0,13,0,0,0,0,0,0,0,0,0],"split_type":[0,0,0,0,1,0,0,0,0,0,0,0,0,0,0,0,0,0,1,0,0,0,0,0,0,0,1,0,0,0,0,0,0,0,0],"sum_hessian":[1.7663508E4,9.160447E3,8.50306E3,3.037979E2,8.856649E3,8.48445E3,1.8609076E1,2.7482077E2,2.8977139E1,4.5584747E1,8.811065E3,3.983472E1,8.444615E3,1.9554485E1,9.422653E0,3.611974E1,9.465008E0,7.113336E3,1.697729E3,1.5741048E0,3.8260616E1,3.5450196E0,1.6009466E1,4.6490955E0,4.7735577E0,5.463596E1,1.643093E3,1.5122391E0,2.0327806E0,1.2392926E0,3.409803E0,4.8634384E1,6.001572E0,1.608854E2,1.4822076E3],"tree_param":{"num_deleted":"0","num_feature":"25","num_nodes":"35","size_leaf_vector":"1"}},{"base_weights":[9.527615E-5,-1.2172118E0,1.3128066E0,1.282477E0,-1.3032625E0,1.3186412E0,-1.263151E-1,1.3168545E-1,9.306815E-1,-7.5209606E-1,-1.3060305E0,1.0871419E0,1.3196048E-1,5.761031E-1,1.2501548E-1,-1.2903401E-1,1.2131772E-1,-1.3208328E-1,-1.2435684E0,-2.003937E-1,1.2866002E-1,1.8811327E-1,9.843176E-1,-4.0255636E-1,-1.2585756E0,-5.2245982E-2,3.8327258E-2,1.14751056E-1,2.4481254E-2,-6.054029E-2,8.947932E-2,-1.0692934E-1,-1.2820044E-1],"categories":[9,10,11,12,13,14,15,16,17,18,19,20,21,22,23,24,25,26,27,28,29,30,31,32,33,34,35,36,37,38,39,40,41,42,43,44,0,1,2,3,4,5,6,7,8,9,10,11,12,13,14,15,16,17,18,19,20,21,22,15,16,17,19,20,21,22,23,24,25,26,27,28,29,30,31,32,33,34,35,36,37,38,39,40,41,42,43,44,0,1,2,3,4,5,6,7,8,9,10,11,12,13,14,15,16,17,18,19,20,21,22,23,24,25,26,27,28,29,30,31,32,33,34,35,36,37,38,39,27,28,29,30,31,32,33,34,35,36,37,38,39,40,41,42,43,44],"categories_nodes":[4,8,18,21,24],"categories_segments":[0,36,59,88,128],"categories_sizes":[36,23,29,40,18],"default_left":[0,0,0,0,1,0,0,0,1,0,0,0,0,0,0,0,0,0,1,0,0,1,0,0,1,0,0,0,0,0,0,0,0],"id":7,"left_children":[1,3,5,7,9,11,-1,-1,13,15,17,19,-1,21,-1,-1,-1,-1,23,-1,-1,25,27,29,31,-1,-1,-1,-1,-1,-1,-1,-1],"loss_changes":[2.6423486E4,1.8471396E3,1.2124121E2,2.233612E0,1.1671875E1,3.3789062E-1,0E0,0E0,2.550354E0,4.7902473E1,5.9873047E0,2.6366688E1,0E0,2.2759275E0,0E0,0E0,0E0,0E0,1.9661621E1,0E0,0E0,1.4764762E0,6.0437536E-1,8.300976E0,5.5891113E0,0E0,0E0,0E0,0E0,0E0,0E0,0E0,0E0],"parents":[2147483647,0,0,1,1,2,2,3,3,4,4,5,5,8,8,9,9,10,10,11,11,13,13,18,18,21,21,22,22,23,23,24,24],"right_children":[2,4,6,8,10,12,-1,-1,14,16,18,20,-1,22,-1,-1,-1,-1,24,-1,-1,26,28,30,32,-1,-1,-1,-1,-1,-1,-1,-1],"split_conditions":[3.7E2,1.7071E4,1.866E4,1.5E4,1E-45,4.07E2,-1.263151E-1,1.3168545E-1,1E-45,1.7071E4,1.7071E4,4.56E2,1.3196048E-1,5.47E2,1.2501548E-1,-1.2903401E-1,1.2131772E-1,-1.3208328E-1,1E-45,-2.003937E-1,1.2866002E-1,1E-45,9.388E3,4.56E2,1E-45,-5.2245982E-2,3.8327258E-2,1.14751056E-1,2.4481254E-2,-6.054029E-2,8.947932E-2,-1.0692934E-1,-1.2820044E-1],"split_indices":[14,24,24,24,0,14,0,0,0,23,23,13,0,13,0,0,0,0,0,0,0,0,9,13,0,0,0,0,0,0,0,0,0],"split_type":[0,0,0,0,1,0,0,0,1,0,0,0,0,0,0,0,0,0,1,0,0,1,0,0,1,0,0,0,0,0,0,0,0],"sum_hessian":[1.6533629E4,8.578585E3,7.9550444E3,2.8502344E2,8.293562E3,7.937554E3,1.7490568E1,2.571514E2,2.7872013E1,4.2805267E1,8.250756E3,3.7583656E1,7.89997E3,1.4538852E1,1.3333161E1,3.3871937E1,8.933329E0,6.6537983E3,1.5969576E3,1.7297769E0,3.5853878E1,8.203043E0,6.335809E0,2.8484661E1,1.568473E3,1.4061546E0,6.7968884E0,4.738415E0,1.5973943E0,2.5094393E1,3.390268E0,1.7789453E2,1.3905785E3],"tree_param":{"num_deleted":"0","num_feature":"25","num_nodes":"33","size_leaf_vector":"1"}},{"base_weights":[1.1858524E-4,-1.1789846E0,1.2730608E0,1.2407821E0,-1.2624664E0,1.2787488E0,-1.2210156E-1,1.2769197E-1,8.827806E-1,-7.254217E-1,-1.2651664E0,1.0422006E0,1.279742E-1,5.3763133E-1,1.20702125E-1,-1.2491906E-1,1.1698735E-1,-1.2811027E-1,-1.1983709E0,-1.796382E-1,1.2463119E-1,1.6859677E-1,9.3920374E-1,-6.344514E-1,-1.2224958E0,3.79501E-2,-4.5683745E-2,1.1021902E-1,2.3055358E-2,-7.825396E-2,6.899854E-2,-1.0543933E-1,-1.23909734E-1],"categories":[9,10,11,12,13,14,15,16,17,18,19,20,21,22,23,24,25,26,27,28,29,30,31,32,33,34,35,36,37,38,39,40,41,42,43,44,0,1,2,3,4,5,6,7,8,9,10,11,12,13,14,15,16,17,18,19,20,21,22,20,21,22,23,24,25,26,27,28,29,30,31,32,33,34,35,36,37,38,39,40,41,42,43,44,27,28,29,30,31,32,33,34,35,36,37,38,39,40,41,42,43,44],"categories_nodes":[4,8,18,24],"categories_segments":[0,36,59,84],"categories_sizes":[36,23,25,18],"default_left":[0,0,0,0,1,0,0,0,1,0,0,0,0,0,0,0,0,0,1,0,0,0,0,0,1,0,0,0,0,0,0,0,0],"id":8,"left_children":[1,3,5,7,9,11,-1,-1,13,15,17,19,-1,21,-1,-1,-1,-1,23,-1,-1,25,27,29,31,-1,-1,-1,-1,-1,-1,-1,-1],"loss_changes":[2.313505E4,1.6179912E3,1.06708984E2,2.331726E0,1.0298828E1,4.033203E-1,0E0,0E0,2.4569912E0,4.220064E1,6.6572266E0,2.3277744E1,0E0,2.1010857E0,0E0,0E0,0E0,0E0,1.9601562E1,0E0,0E0,1.382148E0,5.6392336E-1,1.2999966E1,2.6989746E0,0E0,0E0,0E0,0E0,0E0,0E0,0E0,0E0],"parents":[2147483647,0,0,1,1,2,2,3,3,4,4,5,5,8,8,9,9,10,10,11,11,13,13,18,18,21,21,22,22,23,23,24,24],"right_children":[2,4,6,8,10,12,-1,-1,14,16,18,20,-1,22,-1,-1,-1,-1,24,-1,-1,26,28,30,32,-1,-1,-1,-1,-1,-1,-1,-1],"split_conditions":[3.7E2,1.7071E4,1.866E4,1.5E4,1E-45,4.07E2,-1.2210156E-1,1.2769197E-1,1E-45,1.7071E4,1.7071E4,4.56E2,1.279742E-1,5.47E2,1.20702125E-1,-1.2491906E-1,1.1698735E-1,-1.2811027E-1,1E-45,-1.796382E-1,1.2463119E-1,1E0,9.388E3,6.38E2,1E-45,3.79501E-2,-4.5683745E-2,1.1021902E-1,2.3055358E-2,-7.825396E-2,6.899854E-2,-1.0543933E-1,-1.23909734E-1],"split_indices":[14,24,24,24,0,14,0,0,0,23,23,13,0,13,0,0,0,0,0,0,0,15,9,13,0,0,0,0,0,0,0,0,0],"split_type":[0,0,0,0,1,0,0,0,1,0,0,0,0,0,0,0,0,0,1,0,0,0,0,0,1,0,0,0,0,0,0,0,0],"sum_hessian":[1.5411808E4,8.0008447E3,7.4109634E3,2.6636105E2,7.734484E3,7.3945864E3,1.6376638E1,2.3960762E2,2.6753433E1,4.0038967E1,7.694445E3,3.5312336E1,7.3592744E3,1.4246438E1,1.2506996E1,3.1636932E1,8.402035E0,6.1976167E3,1.4968279E3,1.8455279E0,3.3466805E1,8.163883E0,6.0825543E0,6.252828E1,1.4342997E3,6.3992095E0,1.7646734E0,4.493689E0,1.5888656E0,5.6607967E1,5.92031E0,1.3471552E2,1.2995841E3],"tree_param":{"num_deleted":"0","num_feature":"25","num_nodes":"33","size_leaf_vector":"1"}},{"base_weights":[1.4171361E-4,-1.1460832E0,1.2391683E0,1.204678E0,-1.227375E0,1.2447363E0,-1.18413225E-1,1.2428277E-1,8.394033E-1,-1.24730505E-1,-1.1446497E0,1.1199908E0,1.2469184E-1,3.2990062E-1,1.0422847E0,7.840795E-1,-1.1664474E0,-2.6635632E-1,1.2384542E-1,-1.6454586E-1,9.810321E-2,5.0128734E-1,1.158344E0,-9.897516E-2,1.1246282E0,-8.360681E-1,-1.1926718E0,-4.855071E-2,5.341519E-2,7.167476E-2,1.7644627E-2,1.2012758E-1,3.7652217E-2,9.730064E-2,-1.03847876E-1,1.220572E-1,5.0670054E-2,-9.53247E-2,8.793037E-2,-1.0362542E-1,-1.2016497E-1],"categories":[0,1,2,3,4,5,6,7,8,9,10,11,12,13,14,15,16,17,18,19,20,21,22,23,24,25,26,27,28,29,30,31,12,13,14,15,16,17,18,19,20,21,22,23,24,25,26,27,28,29,30,31,32,33,34,35,36,37,38,39,40,41,42,43,44,21,23,24,25,27,28,29,30,31,32,33,34,35,36,37,38,39,40,41,42,43,44,10,11,27,28,29,30,31,32,33,34,35,36,37,38,39,40,41,42,43,44],"categories_nodes":[8,10,16,23,26],"categories_segments":[0,32,65,87,89],"categories_sizes":[32,33,22,2,18],"default_left":[0,0,0,0,0,0,0,0,1,0,1,0,0,0,0,0,1,0,0,0,0,0,0,1,0,0,1,0,0,0,0,0,0,0,0,0,0,0,0,0,0],"id":9,"left_children":[1,3,5,7,9,11,-1,-1,13,-1,15,17,-1,19,21,23,25,-1,-1,27,-1,29,31,33,35,37,39,-1,-1,-1,-1,-1,-1,-1,-1,-1,-1,-1,-1,-1,-1],"loss_changes":[2.033464E4,1.4227861E3,9.431152E1,2.4281006E0,1.0425781E1,4.7265625E-1,0E0,0E0,2.409628E0,0E0,6.0107178E1,6.0601105E1,0E0,3.0748224E0,5.864506E-1,5.022792E0,1.1068481E1,0E0,0E0,1.6048257E0,0E0,2.2672188E-1,3.5793304E-2,6.514051E0,8.51202E-2,2.2095856E1,5.633545E-1,0E0,0E0,0E0,0E0,0E0,0E0,0E0,0E0,0E0,0E0,0E0,0E0,0E0,0E0],"parents":[2147483647,0,0,1,1,2,2,3,3,4,4,5,5,8,8,10,10,11,11,13,13,14,14,15,15,16,16,19,19,21,21,22,22,23,23,24,24,25,25,26,26],"right_children":[2,4,6,8,10,12,-1,-1,14,-1,16,18,-1,20,22,24,26,-1,-1,28,-1,30,32,34,36,38,40,-1,-1,-1,-1,-1,-1,-1,-1,-1,-1,-1,-1,-1,-1],"split_conditions":[3.7E2,1.7071E4,1.866E4,1.5E4,1.7071E4,5.18E2,-1.18413225E-1,1.2428277E-1,1E-45,-1.24730505E-1,1E-45,7.3E2,1.2469184E-1,5.47E2,5.115E3,1.82E2,1E-45,-2.6635632E-1,1.2384542E-1,1E0,9.810321E-2,3.713E3,1E0,1E-45,4.004E3,7.3E2,1E-45,-4.855071E-2,5.341519E-2,7.167476E-2,1.7644627E-2,1.2012758E-1,3.7652217E-2,9.730064E-2,-1.03847876E-1,1.220572E-1,5.0670054E-2,-9.53247E-2,8.793037E-2,-1.0362542E-1,-1.2016497E-1],"split_indices":[14,24,24,24,23,14,0,0,0,0,0,13,0,13,2,13,0,0,0,17,0,2,15,0,1,13,0,0,0,0,0,0,0,0,0,0,0,0,0,0,0],"split_type":[0,0,0,0,0,0,0,0,1,0,1,0,0,0,0,0,1,0,0,0,0,0,0,1,0,0,1,0,0,0,0,0,0,0,0,0,0,0,0,0,0],"sum_hessian":[1.4316121E4,7.436594E3,6.879527E3,2.4810777E2,7.1884863E3,6.864241E3,1.5285427E1,2.2247032E2,2.5637457E1,5.781537E3,1.4069493E3,1.2684651E2,6.737395E3,8.049233E0,1.7588223E1,1.5332238E1,1.3916172E3,3.1987457E0,1.23647766E2,4.99983E0,3.0494037E0,4.046262E0,1.3541961E1,4.464639E0,1.0867599E1,1.0475671E2,1.2868605E3,3.6350982E0,1.3647317E0,1.7073542E0,2.3389077E0,1.2328465E1,1.2134953E0,2.0686414E0,2.3959975E0,8.562811E0,2.3047884E0,9.847412E1,6.282582E0,7.617222E1,1.2106882E3],"tree_param":{"num_deleted":"0","num_feature":"25","num_nodes":"41","size_leaf_vector":"1"}},{"base_weights":[1.838112E-4,-1.1174849E0,1.2100686E0,1.1731966E0,-1.196926E0,1.215539E0,-1.1514679E-1,1.21348955E-1,8.0178374E-1,-1.2182676E-1,-1.1090413E0,1.0871748E0,1.217793E-1,4.761496E-1,1.1359199E-1,5.313241E-1,-1.1339562E0,-2.3030828E-1,1.20896816E-1,6.4256296E-2,8.0424505E-1,-1.4279872E-1,1.0688498E0,-8.7867415E-1,-1.1665455E-1,-5.289597E-2,4.1505214E-2,1.02653556E-1,1.0438548E-2,9.078687E-2,-5.3605057E-2,1.1708514E-1,4.682859E-2,-1.0077431E-1,4.1108064E-2],"categories":[0,1,2,3,4,5,6,7,8,9,10,11,12,13,14,15,16,17,18,19,20,21,22,12,13,14,15,16,17,19,20,21,22,23,24,25,26,27,28,29,30,31,32,33,34,35,36,37,38,39,40,41,42,43,44,25,27,28,29,30,31,32,33,34,35,36,37,38,39,40,41,42,43,44,10,11,18],"categories_nodes":[8,10,16,21],"categories_segments":[0,23,55,74],"categories_sizes":[23,32,19,3],"default_left":[0,0,0,0,0,0,0,0,1,0,1,0,0,0,0,0,1,0,0,0,0,1,0,0,0,0,0,0,0,0,0,0,0,0,0],"id":10,"left_children":[1,3,5,7,9,11,-1,-1,13,-1,15,17,-1,19,-1,21,23,-1,-1,25,27,29,31,33,-1,-1,-1,-1,-1,-1,-1,-1,-1,-1,-1],"loss_changes":[1.7931914E4,1.2557686E3,8.366016E1,2.492218E0,1.1145508E1,5.1464844E-1,0E0,0E0,2.2454872E0,0E0,5.426172E1,5.190483E1,0E0,1.9336541E0,0E0,7.5173154E0,9.737427E0,0E0,0E0,1.8011856E0,1.1514893E0,4.5765595E0,1.5162563E-1,2.5467606E1,0E0,0E0,0E0,0E0,0E0,0E0,0E0,0E0,0E0,0E0,0E0],"parents":[2147483647,0,0,1,1,2,2,3,3,4,4,5,5,8,8,10,10,11,11,13,13,15,15,16,16,19,19,20,20,21,21,22,22,23,23],"right_children":[2,4,6,8,10,12,-1,-1,14,-1,16,18,-1,20,-1,22,24,-1,-1,26,28,30,32,34,-1,-1,-1,-1,-1,-1,-1,-1,-1,-1,-1],"split_conditions":[3.7E2,1.7071E4,1.866E4,1.5E4,1.7071E4,5.18E2,-1.1514679E-1,1.21348955E-1,1E-45,-1.2182676E-1,1E-45,7.3E2,1.217793E-1,4.56E2,1.1359199E-1,1.82E2,1E-45,-2.3030828E-1,1.20896816E-1,8.288E3,1.9772E4,1E-45,4.004E3,6.38E2,-1.1665455E-1,-5.289597E-2,4.1505214E-2,1.02653556E-1,1.0438548E-2,9.078687E-2,-5.3605057E-2,1.1708514E-1,4.682859E-2,-1.0077431E-1,4.1108064E-2],"split_indices":[14,24,24,24,23,14,0,0,0,0,0,13,0,13,0,13,0,0,0,2,10,0,1,13,0,0,0,0,0,0,0,0,0,0,0],"split_type":[0,0,0,0,0,0,0,0,1,0,1,0,0,0,0,0,1,0,0,0,0,1,0,0,0,0,0,0,0,0,0,0,0,0,0],"sum_hessian":[1.3258793E4,6.8920884E3,6.3667046E3,2.3054553E2,6.661543E3,6.352475E3,1.4229861E1,2.0593712E2,2.460841E1,5.349602E3,1.311941E3,1.1796134E2,6.2345137E3,1.3690893E1,1.0917517E1,1.9324316E1,1.2926167E3,3.4696612E0,1.1449168E2,6.600468E0,7.0904255E0,8.898656E0,1.0425659E1,1.4949995E2,1.1431167E3,2.2640104E0,4.3364577E0,5.0269766E0,2.063449E0,2.0671487E0,6.831507E0,8.100294E0,2.325365E0,1.3609886E2,1.34011E1],"tree_param":{"num_deleted":"0","num_feature":"25","num_nodes":"35","size_leaf_vector":"1"}},{"base_weights":[2.2482997E-4,-1.0924413E0,1.1849153E0,1.1448525E0,-1.1702671E0,1.190307E0,-1.1222161E-1,1.1880638E-1,7.624397E-1,-1.19319275E-1,-1.0766693E0,1.0584935E0,1.1926284E-1,4.442282E-1,1.1054521E-1,5.037054E-1,-1.1016984E0,-2.0419781E-1,1.1833387E-1,1.1777815E-1,8.318041E-1,-1.2712526E-1,1.0170403E0,-8.341493E-1,-1.1367714E0,-1.1214685E-2,6.6451095E-2,1.0088197E-1,1.6313117E-2,8.481475E-2,-4.993112E-2,4.6266805E-2,1.1626216E-1,-1.0829659E-1,-1.4649465E-2,-1.1488201E-1,-1.0342778E-1],"categories":[0,1,2,3,4,5,6,7,8,9,10,11,12,13,14,15,16,17,18,19,20,21,22,12,13,14,15,16,17,19,20,21,22,23,24,25,26,27,28,29,30,31,32,33,34,35,36,37,38,39,40,41,42,43,44,25,27,28,29,30,31,32,33,34,35,36,37,38,39,40,41,42,43,44,10,11,18],"categories_nodes":[8,10,16,21],"categories_segments":[0,23,55,74],"categories_sizes":[23,32,19,3],"default_left":[0,0,0,0,0,0,0,0,1,0,1,0,0,0,0,0,1,0,0,0,0,1,0,0,0,0,0,0,0,0,0,0,0,0,0,0,0],"id":11,"left_children":[1,3,5,7,9,11,-1,-1,13,-1,15,17,-1,19,-1,21,23,-1,-1,25,27,29,31,33,35,-1,-1,-1,-1,-1,-1,-1,-1,-1,-1,-1,-1],"loss_changes":[1.585787E4,1.1109565E3,7.4450195E1,2.642517E0,1.1930664E1,5.3222656E-1,0E0,0E0,2.193161E0,0E0,4.8891724E1,4.514386E1,0E0,1.7276556E0,0E0,6.5209627E0,1.03428955E1,0E0,0E0,1.2055252E0,5.9675264E-1,3.9605346E0,3.4933758E-1,2.4344841E1,1.2207031E-1,0E0,0E0,0E0,0E0,0E0,0E0,0E0,0E0,0E0,0E0,0E0,0E0],"parents":[2147483647,0,0,1,1,2,2,3,3,4,4,5,5,8,8,10,10,11,11,13,13,15,15,16,16,19,19,20,20,21,21,22,22,23,23,24,24],"right_children":[2,4,6,8,10,12,-1,-1,14,-1,16,18,-1,20,-1,22,24,-1,-1,26,28,30,32,34,36,-1,-1,-1,-1,-1,-1,-1,-1,-1,-1,-1,-1],"split_conditions":[3.7E2,1.7071E4,1.866E4,1.5E4,1.7071E4,5.18E2,-1.1222161E-1,1.1880638E-1,1E-45,-1.19319275E-1,1E-45,7.3E2,1.1926284E-1,5.47E2,1.1054521E-1,1.82E2,1E-45,-2.0419781E-1,1.1833387E-1,1E0,9.388E3,1E-45,2.73E2,4.56E2,7.3E2,-1.1214685E-2,6.6451095E-2,1.0088197E-1,1.6313117E-2,8.481475E-2,-4.993112E-2,4.6266805E-2,1.1626216E-1,-1.0829659E-1,-1.4649465E-2,-1.1488201E-1,-1.0342778E-1],"split_indices":[14,24,24,24,23,14,0,0,0,0,0,13,0,13,0,13,0,0,0,17,9,0,13,13,13,0,0,0,0,0,0,0,0,0,0,0,0],"split_type":[0,0,0,0,0,0,0,0,1,0,1,0,0,0,0,0,1,0,0,0,0,1,0,0,0,0,0,0,0,0,0,0,0,0,0,0,0],"sum_hessian":[1.2248463E4,6.3717427E3,5.87672E3,2.1373369E2,6.158009E3,5.8635015E3,1.3218815E1,1.9014163E2,2.3592068E1,4.937004E3,1.2210052E3,1.0938444E2,5.754117E3,1.3429055E1,1.01630125E1,1.8737898E1,1.2022673E3,3.6396406E0,1.057448E2,7.9970937E0,5.431962E0,8.744387E0,9.993511E0,1.4221164E2,1.0600557E3,6.18916E0,1.8079338E0,3.892756E0,1.539206E0,2.0620863E0,6.6823006E0,2.9475079E0,7.0460033E0,1.0400446E2,3.8207184E1,9.3941486E2,1.2064082E2],"tree_param":{"num_deleted":"0","num_feature":"25","num_nodes":"37","size_leaf_vector":"1"}},{"base_weights":[2.6108834E-4,-1.0702804E0,1.1630473E0,1.1198224E0,-1.1467144E0,1.1683767E0,-1.0957368E-1,1.1658894E-1,7.287596E-1,-1.17142014E-1,-1.0468124E0,1.0331881E0,1.1707628E-1,2.5107938E-1,9.368735E-1,2.2280426E-1,-1.0773067E0,-1.843663E-1,1.16090715E-1,-1.7039266E-1,8.835141E-2,4.2280892E-1,1.0630205E0,-1.5519388E-1,1.1321267E-1,-8.344914E-1,-1.112314E-1,-4.6044398E-2,4.789736E-2,6.4478844E-2,1.1269356E-2,1.1149212E-1,2.9236648E-2,2.6833734E-2,-1.108784E-1,-9.411224E-2,8.772489E-2],"categories":[0,1,2,3,4,5,6,7,8,9,10,11,12,13,14,15,16,17,18,19,20,21,22,23,24,25,26,27,28,29,30,31,14,15,16,17,19,20,21,22,23,24,25,26,27,28,29,30,31,32,33,34,35,36,37,38,39,40,41,42,43,44,27,28,29,30,31,32,33,34,35,36,37,38,39,40,41,42,43,44,12,13],"categories_nodes":[8,10,16,23],"categories_segments":[0,32,62,80],"categories_sizes":[32,30,18,2],"default_left":[0,0,0,0,0,0,0,0,1,0,1,0,0,0,0,0,1,0,0,0,0,0,0,1,0,0,0,0,0,0,0,0,0,0,0,0,0],"id":12,"left_children":[1,3,5,7,9,11,-1,-1,13,-1,15,17,-1,19,21,23,25,-1,-1,27,-1,29,31,33,-1,35,-1,-1,-1,-1,-1,-1,-1,-1,-1,-1,-1],"loss_changes":[1.4057509E4,9.8553125E2,6.644385E1,2.7314606E0,1.2797852E1,5.3222656E-1,0E0,0E0,2.1124935E0,0E0,4.4218628E1,3.9685555E1,0E0,2.424981E0,5.935135E-1,9.618428E0,8.502441E0,0E0,0E0,1.3428607E0,0E0,2.5979424E-1,1.6415787E-1,8.490048E0,0E0,2.7072952E1,0E0,0E0,0E0,0E0,0E0,0E0,0E0,0E0,0E0,0E0,0E0],"parents":[2147483647,0,0,1,1,2,2,3,3,4,4,5,5,8,8,10,10,11,11,13,13,14,14,15,15,16,16,19,19,21,21,22,22,23,23,25,25],"right_children":[2,4,6,8,10,12,-1,-1,14,-1,16,18,-1,20,22,24,26,-1,-1,28,-1,30,32,34,-1,36,-1,-1,-1,-1,-1,-1,-1,-1,-1,-1,-1],"split_conditions":[3.7E2,1.7071E4,1.866E4,1.5E4,1.7071E4,5.18E2,-1.0957368E-1,1.1658894E-1,1E-45,-1.17142014E-1,1E-45,7.3E2,1.1707628E-1,5.47E2,5.115E3,3.65E2,1E-45,-1.843663E-1,1.16090715E-1,1E0,8.835141E-2,3.713E3,1E0,1E-45,1.1321267E-1,7.3E2,-1.112314E-1,-4.6044398E-2,4.789736E-2,6.4478844E-2,1.1269356E-2,1.1149212E-1,2.9236648E-2,2.6833734E-2,-1.108784E-1,-9.411224E-2,8.772489E-2],"split_indices":[14,24,24,24,23,14,0,0,0,0,0,13,0,13,2,13,0,0,0,17,0,2,15,0,0,13,0,0,0,0,0,0,0,0,0,0,0],"split_type":[0,0,0,0,0,0,0,0,1,0,1,0,0,0,0,0,1,0,0,0,0,0,0,1,0,0,0,0,0,0,0,0,0,0,0,0,0],"sum_hessian":[1.1290888E4,5.878663E3,5.4122246E3,1.977849E2,5.680878E3,5.399967E3,1.2258042E1,1.751688E2,2.261611E1,4.545948E3,1.1349297E3,1.0118372E2,5.298783E3,7.532757E0,1.5083354E1,2.6471983E1,1.1084578E3,3.7300317E0,9.745369E1,4.9587107E0,2.5740457E0,3.8294768E0,1.1253877E1,1.9284782E1,7.1872015E0,1.428017E2,9.6565607E2,3.6287823E0,1.3299286E0,1.6029217E0,2.2265549E0,1.0125257E1,1.1286203E0,1.3851379E1,5.4334025E0,1.3485147E2,7.9502325E0],"tree_param":{"num_deleted":"0","num_feature":"25","num_nodes":"37","size_leaf_vector":"1"}},{"base_weights":[3.052055E-4,-1.0505002E0,1.1439382E0,1.0972514E0,-1.1257311E0,1.1492196E0,-1.0715139E-1,1.1464391E-1,6.978283E-1,-1.15242444E-1,-1.0189173E0,1.0106621E0,1.151669E-1,3.9892015E-1,1.05269186E-1,2.0473333E-1,-1.0500579E0,-1.6874765E-1,1.1411481E-1,3.2309216E-2,7.1209055E-1,-2.736586E-1,8.55423E-1,-7.95068E-1,-1.0877881E-1,-5.16963E-2,3.676605E-2,9.382465E-2,5.7104775E-3,3.1363916E-2,-1.1666178E-1,1.05042815E-1,2.0739546E-2,-9.53424E-2,3.5637952E-2],"categories":[0,1,2,3,4,5,6,7,8,9,10,11,12,13,14,15,16,17,18,19,20,21,22,14,15,16,17,19,20,21,22,23,24,25,26,27,28,29,30,31,32,33,34,35,36,37,38,39,40,41,42,43,44,27,28,29,30,31,32,33,34,35,36,37,38,39,40,41,42,43,44,11,12,13],"categories_nodes":[8,10,16,21],"categories_segments":[0,23,53,71],"categories_sizes":[23,30,18,3],"default_left":[0,0,0,0,0,0,0,0,1,0,1,0,0,0,0,0,1,0,0,0,0,1,0,0,0,0,0,0,0,0,0,0,0,0,0],"id":13,"left_children":[1,3,5,7,9,11,-1,-1,13,-1,15,17,-1,19,-1,21,23,-1,-1,25,27,29,31,33,-1,-1,-1,-1,-1,-1,-1,-1,-1,-1,-1],"loss_changes":[1.2487175E4,8.762173E2,5.945117E1,2.8104858E0,1.3743652E1,5.209961E-1,0E0,0E0,1.9884138E0,0E0,4.0408813E1,3.516201E1,0E0,1.5768149E0,0E0,8.643284E0,9.032959E0,0E0,0E0,1.5654757E0,1.052552E0,8.927822E0,1.2591944E0,2.5196777E1,0E0,0E0,0E0,0E0,0E0,0E0,0E0,0E0,0E0,0E0,0E0],"parents":[2147483647,0,0,1,1,2,2,3,3,4,4,5,5,8,8,10,10,11,11,13,13,15,15,16,16,19,19,20,20,21,21,22,22,23,23],"right_children":[2,4,6,8,10,12,-1,-1,14,-1,16,18,-1,20,-1,22,24,-1,-1,26,28,30,32,34,-1,-1,-1,-1,-1,-1,-1,-1,-1,-1,-1],"split_conditions":[3.7E2,1.7071E4,1.866E4,1.5E4,1.7071E4,5.18E2,-1.0715139E-1,1.1464391E-1,1E-45,-1.15242444E-1,1E-45,7.3E2,1.151669E-1,4.56E2,1.05269186E-1,2.73E2,1E-45,-1.6874765E-1,1.1411481E-1,8.288E3,1.9772E4,1E-45,4.374E3,6.38E2,-1.0877881E-1,-5.16963E-2,3.676605E-2,9.382465E-2,5.7104775E-3,3.1363916E-2,-1.1666178E-1,1.05042815E-1,2.0739546E-2,-9.53424E-2,3.5637952E-2],"split_indices":[14,24,24,24,23,14,0,0,0,0,0,13,0,13,0,13,0,0,0,2,10,0,6,13,0,0,0,0,0,0,0,0,0,0,0],"split_type":[0,0,0,0,0,0,0,0,1,0,1,0,0,0,0,0,1,0,0,0,0,1,0,0,0,0,0,0,0,0,0,0,0,0,0],"sum_hessian":[1.038895E4,5.414251E3,4.9746997E3,1.8277109E2,5.2314795E3,4.9633486E3,1.1350911E1,1.610661E2,2.170498E1,4.177668E3,1.053812E3,9.340281E1,4.869946E3,1.2934316E1,8.770664E0,2.601447E1,1.0277975E3,3.7582834E0,8.964452E1,6.466968E0,6.4673476E0,1.5326064E1,1.0688404E1,1.353233E2,8.924742E2,2.2462597E0,4.2207084E0,4.4859524E0,1.9813954E0,9.636752E0,5.689312E0,7.738703E0,2.9497018E0,1.1911384E2,1.6209475E1],"tree_param":{"num_deleted":"0","num_feature":"25","num_nodes":"35","size_leaf_vector":"1"}},{"base_weights":[3.3678938E-4,-1.0327513E0,1.1271641E0,1.076113E0,-1.1069075E0,1.1324104E0,-1.0491276E-1,1.1292862E-1,6.6413337E-1,-1.1357825E-1,-9.9267125E-1,9.90437E-1,1.1349229E-1,3.723274E-1,1.0289472E-1,1.0089986E-1,-1.0276234E0,-1.5609132E-1,1.1236346E-1,2.731927E-2,6.7450804E-1,-2.026587E-1,1.1498449E-1,-7.7141374E-1,-1.0650703E0,-2.8664393E-2,6.1390307E-2,8.971184E-2,5.3375144E-3,6.9806136E-2,-5.6079447E-2,-9.4032176E-2,3.176452E-2,-1.0095209E-1,-1.0898203E-1],"categories":[0,1,2,3,4,5,6,7,8,9,10,11,12,13,14,15,16,17,18,19,20,21,22,15,16,17,19,20,21,22,23,24,25,26,27,28,29,30,31,32,33,34,35,36,37,38,39,40,41,42,43,44,27,28,29,30,31,32,33,34,35,36,37,38,39,40,41,42,43,44,0,1,2,3,4,5,6,7,8,9,10,11,12,13,14,15,16,17,18,19,20,21,22,23,24,25,26,27,28,29,30,11,12,13,14,18,27,28,29,30,31,32,33,34,35],"categories_nodes":[8,10,16,19,21,24],"categories_segments":[0,23,52,70,101,106],"categories_sizes":[23,29,18,31,5,9],"default_left":[0,0,0,0,0,0,0,0,1,0,1,0,0,0,0,0,1,0,0,1,0,1,0,0,1,0,0,0,0,0,0,0,0,0,0],"id":14,"left_children":[1,3,5,7,9,11,-1,-1,13,-1,15,17,-1,19,-1,21,23,-1,-1,25,27,29,-1,31,33,-1,-1,-1,-1,-1,-1,-1,-1,-1,-1],"loss_changes":[1.1112395E4,7.799971E2,5.3316895E1,2.96698E0,1.4743652E1,5E-1,0E0,0E0,1.940176E0,0E0,3.7512573E1,3.1341972E1,0E0,1.4090677E0,0E0,1.0174859E1,8.27832E0,0E0,0E0,1.5453087E0,9.555483E-1,8.477008E0,0E0,2.321473E1,3.3935547E-2,0E0,0E0,0E0,0E0,0E0,0E0,0E0,0E0,0E0,0E0],"parents":[2147483647,0,0,1,1,2,2,3,3,4,4,5,5,8,8,10,10,11,11,13,13,15,15,16,16,19,19,20,20,21,21,23,23,24,24],"right_children":[2,4,6,8,10,12,-1,-1,14,-1,16,18,-1,20,-1,22,24,-1,-1,26,28,30,-1,32,34,-1,-1,-1,-1,-1,-1,-1,-1,-1,-1],"split_conditions":[3.7E2,1.7071E4,1.866E4,1.5E4,1.7071E4,5.18E2,-1.0491276E-1,1.1292862E-1,1E-45,-1.1357825E-1,1E-45,7.3E2,1.1349229E-1,4.56E2,1.0289472E-1,4.56E2,1E-45,-1.5609132E-1,1.1236346E-1,1E-45,1.9772E4,1E-45,1.1498449E-1,6.38E2,1E-45,-2.8664393E-2,6.1390307E-2,8.971184E-2,5.3375144E-3,6.9806136E-2,-5.6079447E-2,-9.4032176E-2,3.176452E-2,-1.0095209E-1,-1.0898203E-1],"split_indices":[14,24,24,24,23,14,0,0,0,0,0,13,0,13,0,13,0,0,0,0,10,0,0,13,0,0,0,0,0,0,0,0,0,0,0],"split_type":[0,0,0,0,0,0,0,0,1,0,1,0,0,0,0,0,1,0,0,1,0,1,0,0,1,0,0,0,0,0,0,0,0,0,0],"sum_hessian":[9.543812E3,4.979048E3,4.5647637E3,1.6867699E2,4.810371E3,4.5542646E3,1.0498963E1,1.4785289E2,2.0824102E1,3.832662E3,9.777088E2,8.606631E1,4.4681987E3,1.2692369E1,8.131733E0,3.022276E1,9.47486E2,3.7384748E0,8.2327835E1,6.4353533E0,6.257016E0,2.4065222E1,6.1575375E0,1.2357704E2,8.23909E2,4.524821E0,1.9105324E0,4.27909E0,1.9779263E0,6.5763617E0,1.7488861E1,1.07102516E2,1.6474531E1,2.668272E2,5.570818E2],"tree_param":{"num_deleted":"0","num_feature":"25","num_nodes":"35","size_leaf_vector":"1"}},{"base_weights":[3.7586837E-4,-1.0166552E0,1.1123792E0,1.0568693E0,-1.0898767E0,1.1176018E0,-1.02823175E-1,1.11408226E-1,6.344052E-1,-1.1211494E-1,-9.676716E-1,9.7212625E-1,1.1201777E-1,3.512137E-1,1.0066717E-1,-7.384523E-2,-1.0112324E0,-1.4559694E-1,1.10801734E-1,7.776967E-2,7.1392035E-1,-6.5169007E-1,3.4427002E-1,-7.662941E-1,-1.0438071E0,2.8194232E-2,-4.838357E-2,9.16039E-2,7.849676E-3,1.2102066E-2,-1.12923674E-1,9.170389E-3,1.1133462E-1,-9.009691E-2,6.967371E-2,-9.849839E-2,-1.07018426E-1],"categories":[0,1,2,3,4,5,6,7,8,9,10,11,12,13,14,15,16,17,18,19,20,21,22,16,17,20,21,22,23,24,25,26,27,28,29,30,31,32,33,34,35,36,37,38,39,40,41,42,43,44,27,28,29,30,31,32,33,34,35,36,37,38,39,40,41,42,43,44,10,11,13,14,15,19,27,28,29,30,31,32,33,34,35],"categories_nodes":[8,10,16,21,24],"categories_segments":[0,23,50,68,74],"categories_sizes":[23,27,18,6,9],"default_left":[0,0,0,0,0,0,0,0,1,0,1,0,0,0,0,0,1,0,0,0,0,1,0,0,1,0,0,0,0,0,0,0,0,0,0,0,0],"id":15,"left_children":[1,3,5,7,9,11,-1,-1,13,-1,15,17,-1,19,-1,21,23,-1,-1,25,27,29,31,33,35,-1,-1,-1,-1,-1,-1,-1,-1,-1,-1,-1,-1],"loss_changes":[9.904124E3,6.9560986E2,4.7916992E1,3.0763397E0,1.580127E1,4.7509766E-1,0E0,0E0,1.8593903E0,0E0,3.5264465E1,2.8070724E1,0E0,1.2792177E0,0E0,1.0675388E1,6.1047974E0,0E0,0E0,1.1449218E0,6.553271E-1,6.965199E0,4.8999014E0,2.1383121E1,1.2664795E-1,0E0,0E0,0E0,0E0,0E0,0E0,0E0,0E0,0E0,0E0,0E0,0E0],"parents":[2147483647,0,0,1,1,2,2,3,3,4,4,5,5,8,8,10,10,11,11,13,13,15,15,16,16,19,19,20,20,21,21,22,22,23,23,24,24],"right_children":[2,4,6,8,10,12,-1,-1,14,-1,16,18,-1,20,-1,22,24,-1,-1,26,28,30,32,34,36,-1,-1,-1,-1,-1,-1,-1,-1,-1,-1,-1,-1],"split_conditions":[3.7E2,1.7071E4,1.866E4,1.5E4,1.7071E4,5.18E2,-1.02823175E-1,1.11408226E-1,1E-45,-1.1211494E-1,1E-45,7.3E2,1.1201777E-1,5.47E2,1.0066717E-1,1.82E2,1E-45,-1.4559694E-1,1.10801734E-1,1E0,9.388E3,1E-45,5.47E2,7.3E2,1E-45,2.8194232E-2,-4.838357E-2,9.16039E-2,7.849676E-3,1.2102066E-2,-1.12923674E-1,9.170389E-3,1.1133462E-1,-9.009691E-2,6.967371E-2,-9.849839E-2,-1.07018426E-1],"split_indices":[14,24,24,24,23,14,0,0,0,0,0,13,0,13,0,13,0,0,0,15,9,0,13,13,0,0,0,0,0,0,0,0,0,0,0,0,0],"split_type":[0,0,0,0,0,0,0,0,1,0,1,0,0,0,0,0,1,0,0,0,0,1,0,0,1,0,0,0,0,0,0,0,0,0,0,0,0],"sum_hessian":[8.75541E3,4.5730312E3,4.182379E3,1.5551904E2,4.417512E3,4.172677E3,9.702383E0,1.3552785E2,1.9991188E1,3.5108867E3,9.066254E2,7.91848E1,4.093492E3,1.2457746E1,7.5334415E0,4.2256554E1,8.643689E2,3.681932E0,7.550287E1,7.7952976E0,4.662448E0,1.7505255E1,2.4751299E1,1.0433917E2,7.600297E2,6.082107E0,1.7131902E0,3.2022436E0,1.4602045E0,6.971446E0,1.0533809E1,1.9474932E1,5.2763667E0,9.589593E1,8.443242E0,2.471672E2,5.128625E2],"tree_param":{"num_deleted":"0","num_feature":"25","num_nodes":"37","size_leaf_vector":"1"}},{"base_weights":[4.0207684E-4,-1.0018928E0,1.0992982E0,1.0387299E0,-1.074268E0,1.1045078E0,-1.008539E-1,1.10053875E-1,6.0439247E-1,-1.10824086E-1,-9.433293E-1,9.554115E-1,1.10714845E-1,3.286073E-1,9.855831E-2,-6.802446E-2,-9.886889E-1,-1.3672814E-1,1.0940056E-1,1.244716E-2,6.198005E-1,9.63798E-2,-2.8052166E-1,-7.3242986E-1,-1.023653E0,-3.113578E-2,5.1813424E-2,8.4318034E-2,3.175281E-3,-8.330919E-2,1.4172074E-2,-8.6787604E-2,6.2020727E-2,-9.612048E-2,-1.0518596E-1],"categories":[0,1,2,3,4,5,6,7,8,9,10,11,12,13,14,15,16,17,18,19,20,21,22,16,17,20,21,22,23,24,25,26,27,28,29,30,31,32,33,34,35,36,37,38,39,40,41,42,43,44,27,28,29,30,31,32,33,34,35,36,37,38,39,40,41,42,43,44,27,28,29,30,31,32,33,34,35],"categories_nodes":[8,10,16,24],"categories_segments":[0,23,50,68],"categories_sizes":[23,27,18,9],"default_left":[0,0,0,0,0,0,0,0,1,0,1,0,0,0,0,0,1,0,0,0,0,0,0,0,1,0,0,0,0,0,0,0,0,0,0],"id":16,"left_children":[1,3,5,7,9,11,-1,-1,13,-1,15,17,-1,19,-1,21,23,-1,-1,25,27,-1,29,31,33,-1,-1,-1,-1,-1,-1,-1,-1,-1,-1],"loss_changes":[8.838876E3,6.2096826E2,4.3149414E1,3.2077637E0,1.6987305E1,4.4580078E-1,0E0,0E0,1.7986722E0,0E0,3.335547E1,2.5239365E1,0E0,1.2089082E0,0E0,9.599513E0,6.420532E0,0E0,0E0,1.3658884E0,8.7416315E-1,0E0,8.530797E0,1.878489E1,2.2485352E-1,0E0,0E0,0E0,0E0,0E0,0E0,0E0,0E0,0E0,0E0],"parents":[2147483647,0,0,1,1,2,2,3,3,4,4,5,5,8,8,10,10,11,11,13,13,15,15,16,16,19,19,20,20,22,22,23,23,24,24],"right_children":[2,4,6,8,10,12,-1,-1,14,-1,16,18,-1,20,-1,22,24,-1,-1,26,28,-1,30,32,34,-1,-1,-1,-1,-1,-1,-1,-1,-1,-1],"split_conditions":[3.7E2,1.7071E4,1.866E4,1.5E4,1.7071E4,5.18E2,-1.008539E-1,1.10053875E-1,1E-45,-1.10824086E-1,1E-45,7.3E2,1.10714845E-1,4.56E2,9.855831E-2,3.253E3,1E-45,-1.3672814E-1,1.0940056E-1,1E0,1.9772E4,9.63798E-2,1.82E2,7.3E2,1E-45,-3.113578E-2,5.1813424E-2,8.4318034E-2,3.175281E-3,-8.330919E-2,1.4172074E-2,-8.6787604E-2,6.2020727E-2,-9.612048E-2,-1.0518596E-1],"split_indices":[14,24,24,24,23,14,0,0,0,0,0,13,0,13,0,6,0,0,0,21,10,0,13,13,0,0,0,0,0,0,0,0,0,0,0],"split_type":[0,0,0,0,0,0,0,0,1,0,1,0,0,0,0,0,1,0,0,0,0,0,0,0,1,0,0,0,0,0,0,0,0,0,0],"sum_hessian":[8.022997E3,4.1959717E3,3.8270256E3,1.4326453E2,4.052707E3,3.8180652E3,8.960335E0,1.2407421E2,1.9190323E1,3.2118965E3,8.408103E2,7.275798E1,3.7453074E3,1.2215014E1,6.975309E0,4.1548443E1,7.992619E2,3.5977688E0,6.916021E1,6.356382E0,5.8586326E0,6.4916015E0,3.5056843E1,9.859432E1,7.0066754E2,4.1093454E0,2.2470365E0,3.9313712E0,1.9272615E0,1.476349E1,2.0293352E1,8.994598E1,8.648346E0,2.2892134E2,4.7174622E2],"tree_param":{"num_deleted":"0","num_feature":"25","num_nodes":"35","size_leaf_vector":"1"}},{"base_weights":[4.3988938E-4,-9.8830163E-1,1.087684E0,1.0215808E0,-1.059949E0,1.0928905E0,-9.898092E-2,1.0884142E-1,5.763178E-1,-1.0968212E-1,-9.198949E-1,9.400277E-1,1.0955973E-1,3.0918586E-1,9.654478E-2,-1.4210086E-1,-9.718784E-1,-1.2911156E-1,1.081356E-1,9.703779E-2,7.433865E-2,-5.558126E-1,5.328905E-1,-7.158511E-1,-1.0043339E0,3.379718E-2,-5.142599E-2,1.4352545E-3,-1.1285509E-1,8.838082E-2,-8.206391E-3,-8.686296E-2,5.5414777E-2,-9.3793325E-2,-1.0345694E-1],"categories":[0,1,2,3,4,5,6,7,8,9,10,11,12,13,14,15,16,17,18,19,20,21,22,16,17,21,22,23,24,25,26,27,28,29,30,31,32,33,34,35,36,37,38,39,40,41,42,43,44,27,28,29,30,31,32,33,34,35,36,37,38,39,40,41,42,43,44,11,12,13,14,15,20,14,15,27,28,29,30,31,32,33,34,35],"categories_nodes":[8,10,16,21,22,24],"categories_segments":[0,23,49,67,73,75],"categories_sizes":[23,26,18,6,2,9],"default_left":[0,0,0,0,0,0,0,0,1,0,1,0,0,0,0,0,1,0,0,0,0,1,1,0,1,0,0,0,0,0,0,0,0,0,0],"id":17,"left_children":[1,3,5,7,9,11,-1,-1,13,-1,15,17,-1,19,-1,21,23,-1,-1,25,-1,27,29,31,33,-1,-1,-1,-1,-1,-1,-1,-1,-1,-1],"loss_changes":[7.897271E3,5.551223E2,3.892627E1,3.3287964E0,1.8177734E1,4.1455078E-1,0E0,0E0,1.7259326E0,0E0,3.1420227E1,2.2768116E1,0E0,1.1271038E0,0E0,1.4278039E1,5.35907E0,0E0,0E0,1.631304E0,0E0,1.031315E1,4.28857E0,1.7123718E1,3.279419E-1,0E0,0E0,0E0,0E0,0E0,0E0,0E0,0E0,0E0,0E0],"parents":[2147483647,0,0,1,1,2,2,3,3,4,4,5,5,8,8,10,10,11,11,13,13,15,15,16,16,19,19,21,21,22,22,23,23,24,24],"right_children":[2,4,6,8,10,12,-1,-1,14,-1,16,18,-1,20,-1,22,24,-1,-1,26,-1,28,30,32,34,-1,-1,-1,-1,-1,-1,-1,-1,-1,-1],"split_conditions":[3.7E2,1.7071E4,1.866E4,1.5E4,1.7071E4,5.18E2,-9.898092E-2,1.0884142E-1,1E-45,-1.0968212E-1,1E-45,7.3E2,1.0955973E-1,6.38E2,9.654478E-2,2.73E2,1E-45,-1.2911156E-1,1.081356E-1,1E0,7.433865E-2,1E-45,1E-45,7.3E2,1E-45,3.379718E-2,-5.142599E-2,1.4352545E-3,-1.1285509E-1,8.838082E-2,-8.206391E-3,-8.686296E-2,5.5414777E-2,-9.3793325E-2,-1.0345694E-1],"split_indices":[14,24,24,24,23,14,0,0,0,0,0,13,0,13,0,13,0,0,0,15,0,0,0,13,0,0,0,0,0,0,0,0,0,0,0],"split_type":[0,0,0,0,0,0,0,0,1,0,1,0,0,0,0,0,1,0,0,0,0,1,1,0,1,0,0,0,0,0,0,0,0,0,0],"sum_hessian":[7.3442744E3,3.8464226E3,3.4978518E3,1.3193953E2,3.7144832E3,3.4895806E3,8.271257E0,1.13464264E2,1.8475264E1,2.934962E3,7.795213E2,6.677784E1,3.4228027E3,1.2018973E1,6.45629E0,4.906897E1,7.3045233E2,3.4933252E0,6.3284515E1,8.895948E0,3.1230257E0,3.0532024E1,1.8536945E1,8.477284E1,6.456795E2,6.701697E0,2.1942513E0,1.5788951E1,1.4743073E1,1.1523807E1,7.0131392E0,7.5952E1,8.82084E0,2.1203885E2,4.3364066E2],"tree_param":{"num_deleted":"0","num_feature":"25","num_nodes":"35","size_leaf_vector":"1"}},{"base_weights":[4.5820503E-4,-9.756387E-1,1.077338E0,1.0048376E0,-1.0466217E0,1.0825506E0,-9.7184084E-2,1.0775053E-1,5.4693407E-1,-1.0866926E-1,-8.968394E-1,9.700012E-1,1.0865929E-1,2.872971E-1,9.460725E-2,-2.2972041E-1,-9.600675E-1,-1.8174013E0,1.078436E-1,-6.8093305E-3,5.7097363E-1,-5.068073E-1,8.4752864E-1,-9.795295E-1,-5.8871895E-1,-2.1032952E-1,-5.9211116E-2,-2.9376348E-2,5.5265486E-2,7.949699E-2,1.5574765E-3,-1.088328E-2,-1.1155172E-1,7.910336E-3,1.3659878E-1,-7.040814E-2,-9.992946E-2,7.877696E-2,-8.1253655E-2],"categories":[0,1,2,3,4,5,6,7,8,9,10,11,12,13,14,15,16,17,18,19,20,21,22,17,21,23,24,25,26,27,28,29,30,31,32,33,34,35,36,37,38,39,40,41,42,43,44,0,1,2,3,4,5,6,7,8,9,10,11,12,13,14,15,16,17,18,19,20,21,22,23,24,25,26,27,28,29,30,0,1,2,3,4,5,6,7,8,9,10,11,12,13,14,15,16,17,18,19,20,21,22,23,24,25,26,27,28,29,30,13,14,15,16,22,17,26,27,28,29,30,31,32,33,34,35,36,37,38,39,40,41,42,43,44,35,44],"categories_nodes":[8,10,17,19,21,23,24],"categories_segments":[0,23,47,78,109,114,134],"categories_sizes":[23,24,31,31,5,20,2],"default_left":[0,0,0,0,0,0,0,0,1,0,1,0,0,0,0,0,0,1,0,1,0,1,0,1,1,0,0,0,0,0,0,0,0,0,0,0,0,0,0],"id":18,"left_children":[1,3,5,7,9,11,-1,-1,13,-1,15,17,-1,19,-1,21,23,25,-1,27,29,31,33,35,37,-1,-1,-1,-1,-1,-1,-1,-1,-1,-1,-1,-1,-1,-1],"loss_changes":[7.063012E3,4.965442E2,3.517749E1,3.4857254E0,1.9450928E1,3.9575195E-1,0E0,0E0,1.6768746E0,0E0,3.031842E1,3.817598E1,0E0,1.0742302E0,0E0,1.953104E1,4.2005005E0,4.5677567E-1,0E0,1.3322012E0,8.015044E-1,1.2360978E1,5.2570734E0,2.7077026E0,1.1553612E1,0E0,0E0,0E0,0E0,0E0,0E0,0E0,0E0,0E0,0E0,0E0,0E0,0E0,0E0],"parents":[2147483647,0,0,1,1,2,2,3,3,4,4,5,5,8,8,10,10,11,11,13,13,15,15,16,16,17,17,19,19,20,20,21,21,22,22,23,23,24,24],"right_children":[2,4,6,8,10,12,-1,-1,14,-1,16,18,-1,20,-1,22,24,26,-1,28,30,32,34,36,38,-1,-1,-1,-1,-1,-1,-1,-1,-1,-1,-1,-1,-1,-1],"split_conditions":[3.7E2,1.7071E4,1.866E4,1.5E4,1.7071E4,6.66E2,-9.7184084E-2,1.0775053E-1,1E-45,-1.0866926E-1,1E-45,8.21E2,1.0865929E-1,4.56E2,9.460725E-2,4.56E2,8.21E2,1E-45,1.078436E-1,1E-45,1.9772E4,1E-45,6.816E3,1E-45,1E-45,-2.1032952E-1,-5.9211116E-2,-2.9376348E-2,5.5265486E-2,7.949699E-2,1.5574765E-3,-1.088328E-2,-1.1155172E-1,7.910336E-3,1.3659878E-1,-7.040814E-2,-9.992946E-2,7.877696E-2,-8.1253655E-2],"split_indices":[14,24,24,24,23,14,0,0,0,0,0,13,0,13,0,13,13,0,0,0,10,0,2,0,0,0,0,0,0,0,0,0,0,0,0,0,0,0,0],"split_type":[0,0,0,0,0,0,0,0,1,0,1,0,0,0,0,0,0,1,0,1,0,1,0,1,1,0,0,0,0,0,0,0,0,0,0,0,0,0,0],"sum_hessian":[6.7173896E3,3.5236262E3,3.1937634E3,1.21466606E2,3.4021597E3,3.1861304E3,7.633075E0,1.0366261E2,1.7803993E1,2.679157E3,7.230026E2,1.1882096E2,3.0673096E3,1.182906E1,5.974933E0,6.2993443E1,6.6000916E2,3.8591099E0,1.14961845E2,6.286952E0,5.542107E0,5.0526657E1,1.2466786E1,6.2558514E2,3.4424034E1,2.5480182E0,1.3110917E0,4.469451E0,1.8175012E0,3.6419387E0,1.9001685E0,3.1264631E1,1.9262026E1,5.4869585E0,6.979828E0,4.433599E1,5.8124915E2,4.4621167E0,2.9961916E1],"tree_param":{"num_deleted":"0","num_feature":"25","num_nodes":"39","size_leaf_vector":"1"}},{"base_weights":[4.870896E-4,-9.636493E-1,1.0681349E0,9.893113E-1,-1.0340452E0,1.0733634E0,-9.544647E-2,1.0676384E-1,5.223891E-1,-1.0776883E-1,-8.7374306E-1,9.5692E-1,1.0775447E-1,2.717219E-1,9.272971E-2,-2.1312274E-1,-9.3980163E-1,-1.7223583E0,1.0686552E-1,7.6259315E-2,6.913095E-1,-4.7533655E-1,7.716778E-1,-9.962619E-1,-7.9257435E-1,-1.9895701E-1,-5.638345E-2,3.053878E-2,-4.922585E-2,2.3022369E-2,8.112244E-2,2.9864073E-2,-7.752172E-2,1.4418946E-1,2.4066003E-2,-5.3329695E-2,-1.00466564E-1,2.8448561E-2,-8.7130934E-2],"categories":[0,1,2,3,4,5,6,7,8,9,10,11,12,13,14,15,16,17,18,19,20,21,22,17,21,23,24,25,26,27,28,29,30,31,32,33,34,35,36,37,38,39,40,41,42,43,44,0,1,2,3,4,5,6,7,8,9,10,11,12,13,14,15,16,17,18,19,20,21,22,23,24,25,26,27,28,29,30,12,13,14,15,16,19,20,22,17,23,24,25,26,27,28,29,30,31,32,33,34,35,36,37,38,39,40,41,42,43,44,26,32,33,34,35,41,42,43,44],"categories_nodes":[8,10,17,21,23,24],"categories_segments":[0,23,47,78,86,109],"categories_sizes":[23,24,31,8,23,9],"default_left":[0,0,0,0,0,0,0,0,1,0,1,0,0,0,0,0,0,1,0,0,0,1,0,1,1,0,0,0,0,0,0,0,0,0,0,0,0,0,0],"id":19,"left_children":[1,3,5,7,9,11,-1,-1,13,-1,15,17,-1,19,-1,21,23,25,-1,27,29,31,33,35,37,-1,-1,-1,-1,-1,-1,-1,-1,-1,-1,-1,-1,-1,-1],"loss_changes":[6.321769E3,4.4469678E2,3.1843506E1,3.5673141E0,2.085376E1,3.8427734E-1,0E0,0E0,1.5912995E0,0E0,2.912378E1,3.468415E1,0E0,9.832169E-1,0E0,1.6474455E1,4.2858276E0,3.5640717E-1,0E0,1.4192326E0,2.8330922E-2,1.1808706E1,4.4567194E0,1.1661377E0,1.5015213E1,0E0,0E0,0E0,0E0,0E0,0E0,0E0,0E0,0E0,0E0,0E0,0E0,0E0,0E0],"parents":[2147483647,0,0,1,1,2,2,3,3,4,4,5,5,8,8,10,10,11,11,13,13,15,15,16,16,17,17,19,19,20,20,21,21,22,22,23,23,24,24],"right_children":[2,4,6,8,10,12,-1,-1,14,-1,16,18,-1,20,-1,22,24,26,-1,28,30,32,34,36,38,-1,-1,-1,-1,-1,-1,-1,-1,-1,-1,-1,-1,-1,-1],"split_conditions":[3.7E2,1.7071E4,1.866E4,1.5E4,1.7071E4,6.66E2,-9.544647E-2,1.0676384E-1,1E-45,-1.0776883E-1,1E-45,8.21E2,1.0775447E-1,6.38E2,9.272971E-2,4.56E2,5.47E2,1E-45,1.0686552E-1,1E0,7.3E2,1E-45,1.5057E4,1E-45,1E-45,-1.9895701E-1,-5.638345E-2,3.053878E-2,-4.922585E-2,2.3022369E-2,8.112244E-2,2.9864073E-2,-7.752172E-2,1.4418946E-1,2.4066003E-2,-5.3329695E-2,-1.00466564E-1,2.8448561E-2,-8.7130934E-2],"split_indices":[14,24,24,24,23,14,0,0,0,0,0,13,0,13,0,13,13,0,0,15,13,0,4,0,0,0,0,0,0,0,0,0,0,0,0,0,0,0,0],"split_type":[0,0,0,0,0,0,0,0,1,0,1,0,0,0,0,0,0,1,0,0,0,1,0,1,1,0,0,0,0,0,0,0,0,0,0,0,0,0,0],"sum_hessian":[6.1394673E3,3.2261758E3,2.9132915E3,1.1178994E2,3.114386E3,2.906248E3,7.0433693E0,9.462917E1,1.7160769E1,2.4434275E3,6.7095856E2,1.0870899E2,2.797539E3,1.1631254E1,5.5295134E0,6.1377552E1,6.09581E2,3.7749703E0,1.0493402E2,8.741038E0,2.8902164E0,4.888004E1,1.2497514E1,4.3644257E2,1.7313841E2,2.4845746E0,1.2903957E0,6.5600076E0,2.1810305E0,1.1991698E0,1.6910467E0,1.365117E1,3.522887E1,4.766367E0,7.7311463E0,8.930216E0,4.2751236E2,1.1616506E1,1.6152191E2],"tree_param":{"num_deleted":"0","num_feature":"25","num_nodes":"39","size_leaf_vector":"1"}},{"base_weights":[5.226194E-4,-9.522779E-1,1.059899E0,9.7367543E-1,-1.0221568E0,1.065152E0,-9.375387E-2,1.0586647E-1,4.9664828E-1,-1.069667E-1,-8.5087854E-1,9.446288E-1,1.0694782E-1,2.5471798E-1,9.089893E-2,-2.4247745E-1,-9.2496175E-1,-1.6400414E0,1.05977595E-1,-2.1241829E-2,5.307404E-1,-5.551694E-1,5.7275534E-1,-9.887494E-1,-7.652457E-1,-1.8941015E-1,-5.369494E-2,-5.1457804E-2,2.9486531E-2,7.5142674E-2,1.1817951E-3,-8.141144E-3,-1.08677864E-1,3.059937E-2,1.5246935E-1,-8.815222E-2,-1.0225941E-1,2.5415732E-2,-8.465354E-2],"categories":[0,1,2,3,4,5,6,7,8,9,10,11,12,13,14,15,16,17,18,19,20,21,22,17,23,24,25,26,27,28,29,30,31,32,33,34,35,36,37,38,39,40,41,42,43,44,0,1,2,3,4,5,6,7,8,9,10,11,12,13,14,15,16,17,18,19,20,21,22,23,24,25,26,27,28,29,30,12,13,14,15,16,21,22,23,24,25,26,27,28,29,30,31,32,33,41,42,43,44,26,32,33,34,35,41,42,43,44],"categories_nodes":[8,10,17,21,23,24],"categories_segments":[0,23,46,77,84,99],"categories_sizes":[23,23,31,7,15,9],"default_left":[0,0,0,0,0,0,0,0,1,0,1,0,0,0,0,0,0,1,0,0,0,1,0,1,1,0,0,0,0,0,0,0,0,0,0,0,0,0,0],"id":20,"left_children":[1,3,5,7,9,11,-1,-1,13,-1,15,17,-1,19,-1,21,23,25,-1,27,29,31,33,35,37,-1,-1,-1,-1,-1,-1,-1,-1,-1,-1,-1,-1,-1,-1],"loss_changes":[5.662358E3,3.9848047E2,2.887085E1,3.6873398E0,2.2285889E1,3.713379E-1,0E0,0E0,1.5240607E0,0E0,2.789566E1,3.1614426E1,0E0,9.6192473E-1,0E0,1.7926998E1,4.9058228E0,2.9284954E-1,0E0,1.2749337E0,7.100717E-1,1.2613816E1,4.5214567E0,5.275574E-1,1.3726624E1,0E0,0E0,0E0,0E0,0E0,0E0,0E0,0E0,0E0,0E0,0E0,0E0,0E0,0E0],"parents":[2147483647,0,0,1,1,2,2,3,3,4,4,5,5,8,8,10,10,11,11,13,13,15,15,16,16,17,17,19,19,20,20,21,21,22,22,23,23,24,24],"right_children":[2,4,6,8,10,12,-1,-1,14,-1,16,18,-1,20,-1,22,24,26,-1,28,30,32,34,36,38,-1,-1,-1,-1,-1,-1,-1,-1,-1,-1,-1,-1,-1,-1],"split_conditions":[3.7E2,1.7071E4,1.866E4,1.5E4,1.7071E4,6.66E2,-9.375387E-2,1.0586647E-1,1E-45,-1.069667E-1,1E-45,8.21E2,1.0694782E-1,4.56E2,9.089893E-2,3.65E2,5.47E2,1E-45,1.05977595E-1,8.288E3,1.9772E4,1E-45,1.4965E4,1E-45,1E-45,-1.8941015E-1,-5.369494E-2,-5.1457804E-2,2.9486531E-2,7.5142674E-2,1.1817951E-3,-8.141144E-3,-1.08677864E-1,3.059937E-2,1.5246935E-1,-8.815222E-2,-1.0225941E-1,2.5415732E-2,-8.465354E-2],"split_indices":[14,24,24,24,23,14,0,0,0,0,0,13,0,13,0,13,13,0,0,2,10,0,5,0,0,0,0,0,0,0,0,0,0,0,0,0,0,0,0],"split_type":[0,0,0,0,0,0,0,0,1,0,1,0,0,0,0,0,0,1,0,0,0,1,0,1,1,0,0,0,0,0,0,0,0,0,0,0,0,0,0],"sum_hessian":[5.60777E3,2.9524473E3,2.655323E3,1.0291946E2,2.8495278E3,2.6488235E3,6.4995074E0,8.632086E1,1.6598595E1,2.2266436E3,6.2288434E2,9.93851E1,2.5494382E3,1.1480468E1,5.1181273E0,6.807754E1,5.548068E2,3.6739593E0,9.571114E1,6.202459E0,5.278009E0,4.9435127E1,1.864241E1,3.9275656E2,1.6205026E2,2.4033456E0,1.2706137E0,2.1770153E0,4.0254436E0,3.3887818E0,1.8892273E0,2.6749617E1,2.2685509E1,1.5593959E1,3.048452E0,1.0071535E2,2.920412E2,1.1810881E1,1.5023938E2],"tree_param":{"num_deleted":"0","num_feature":"25","num_nodes":"39","size_leaf_vector":"1"}},{"base_weights":[5.3379516E-4,-9.4125557E-1,1.0525061E0,9.58404E-1,-1.0106299E0,1.0577928E0,-9.2094414E-2,1.0504552E-1,4.716056E-1,-1.06250726E-1,-8.2749665E-1,9.3294E-1,1.0622724E-1,2.375604E-1,8.9104205E-2,-2.905019E-1,-9.153111E-1,-1.5663333E0,1.0516701E-1,8.958011E-2,7.683784E-2,-5.9867775E-1,3.2687157E-1,-9.655844E-1,-7.1099526E-1,-1.8105565E-1,-5.1136155E-2,2.7486268E-2,-6.2694885E-2,-7.3847272E-3,-1.0771968E-1,-2.0253668E-3,9.2125915E-2,-8.536803E-2,-1.0039448E-1,2.3667797E-2,-8.124972E-2],"categories":[0,1,2,3,4,5,6,7,8,9,10,11,12,13,14,15,16,17,18,19,20,21,22,24,25,26,27,28,29,30,31,32,33,34,35,36,37,38,39,40,41,42,43,44,0,1,2,3,4,5,6,7,8,9,10,11,12,13,14,15,16,17,18,19,20,21,22,23,24,25,26,27,28,29,30,12,13,14,15,16,17,21,22,23,24,25,26,27,28,29,30,31,32,33,34,42,43,44,33,34,35,42,43,44],"categories_nodes":[8,10,17,21,23,24],"categories_segments":[0,23,44,75,84,98],"categories_sizes":[23,21,31,9,14,6],"default_left":[0,0,0,0,0,0,0,0,1,0,1,0,0,0,0,0,0,1,0,0,0,1,0,1,1,0,0,0,0,0,0,0,0,0,0,0,0],"id":21,"left_children":[1,3,5,7,9,11,-1,-1,13,-1,15,17,-1,19,-1,21,23,25,-1,27,-1,29,31,33,35,-1,-1,-1,-1,-1,-1,-1,-1,-1,-1,-1,-1],"loss_changes":[5.074596E3,3.5713208E2,2.621582E1,3.7943726E0,2.389624E1,3.5913086E-1,0E0,0E0,1.4609325E0,0E0,2.709317E1,2.8890633E1,0E0,8.97309E-1,0E0,1.5988657E1,4.4305115E0,2.5041485E-1,0E0,1.5995262E0,0E0,1.391456E1,5.854707E0,8.47229E-1,1.0019791E1,0E0,0E0,0E0,0E0,0E0,0E0,0E0,0E0,0E0,0E0,0E0,0E0],"parents":[2147483647,0,0,1,1,2,2,3,3,4,4,5,5,8,8,10,10,11,11,13,13,15,15,16,16,17,17,19,19,21,21,22,22,23,23,24,24],"right_children":[2,4,6,8,10,12,-1,-1,14,-1,16,18,-1,20,-1,22,24,26,-1,28,-1,30,32,34,36,-1,-1,-1,-1,-1,-1,-1,-1,-1,-1,-1,-1],"split_conditions":[3.7E2,1.7071E4,1.866E4,1.5E4,1.7071E4,6.66E2,-9.2094414E-2,1.0504552E-1,1E-45,-1.06250726E-1,1E-45,8.21E2,1.0622724E-1,7.3E2,8.9104205E-2,3.65E2,6.38E2,1E-45,1.0516701E-1,9.268E3,7.683784E-2,1E-45,9.749E3,1E-45,1E-45,-1.8105565E-1,-5.1136155E-2,2.7486268E-2,-6.2694885E-2,-7.3847272E-3,-1.0771968E-1,-2.0253668E-3,9.2125915E-2,-8.536803E-2,-1.0039448E-1,2.3667797E-2,-8.124972E-2],"split_indices":[14,24,24,24,23,14,0,0,0,0,0,13,0,13,0,13,13,0,0,9,0,0,2,0,0,0,0,0,0,0,0,0,0,0,0,0,0],"split_type":[0,0,0,0,0,0,0,0,1,0,1,0,0,0,0,0,0,1,0,0,0,1,0,1,1,0,0,0,0,0,0,0,0,0,0,0,0],"sum_hessian":[5.1200444E3,2.7015547E3,2.41849E3,9.473155E1,2.606823E3,2.4124915E3,5.9987454E0,7.869317E1,1.603838E1,2.0276392E3,5.791839E2,9.0809204E1,2.3216821E3,1.1299594E1,4.7387843E0,8.200746E1,4.9717645E2,3.5653815E0,8.724382E1,9.75021E0,1.5493841E0,5.472202E1,2.7285444E1,3.9600967E2,1.01166794E2,2.3135805E0,1.2518011E0,8.236726E0,1.5134844E0,2.6648636E1,2.8073383E1,1.7835405E1,9.45004E0,1.0703208E2,2.8897757E2,9.658494E0,9.15083E1],"tree_param":{"num_deleted":"0","num_feature":"25","num_nodes":"37","size_leaf_vector":"1"}},{"base_weights":[5.232178E-4,-9.305784E-1,1.0458491E0,9.425974E-1,-9.9950576E-1,1.0511779E0,-9.045832E-2,1.04289666E-1,4.455967E-1,-1.0561054E-1,-8.041709E-1,9.216869E-1,1.0558224E-1,2.197097E-1,8.733683E-2,-2.704624E-1,-8.961847E-1,-1.4983072E0,1.0442253E-1,4.1987687E-2,6.2880486E-1,-5.0966877E-1,4.6610624E-1,-9.4959855E-1,-6.8381876E-1,-1.7344712E-1,-4.8698984E-2,2.1097412E-2,-6.7747846E-2,2.017974E-2,7.43733E-2,-1.4349523E-2,-1.0708362E-1,6.9201053E-3,1.07234396E-1,-8.310073E-2,-9.90816E-2,2.1250894E-2,-7.879671E-2],"categories":[0,1,2,3,4,5,6,7,8,9,10,11,12,13,14,15,16,17,18,19,20,21,22,24,25,26,27,28,29,30,31,32,33,34,35,36,37,38,39,40,41,42,43,44,0,1,2,3,4,5,6,7,8,9,10,11,12,13,14,15,16,17,18,19,20,21,22,23,24,25,26,27,28,29,30,0,1,2,3,4,5,6,7,8,9,10,11,12,13,14,15,16,17,18,19,20,21,22,23,24,25,13,14,15,16,17,22,23,24,25,26,27,28,29,30,31,32,33,34,42,43,44,33,34,35,42,43,44],"categories_nodes":[8,10,17,19,21,23,24],"categories_segments":[0,23,44,75,101,108,122],"categories_sizes":[23,21,31,26,7,14,6],"default_left":[0,0,0,0,0,0,0,0,1,0,1,0,0,0,0,0,0,1,0,1,0,1,0,1,1,0,0,0,0,0,0,0,0,0,0,0,0,0,0],"id":22,"left_children":[1,3,5,7,9,11,-1,-1,13,-1,15,17,-1,19,-1,21,23,25,-1,27,29,31,33,35,37,-1,-1,-1,-1,-1,-1,-1,-1,-1,-1,-1,-1,-1,-1],"loss_changes":[4.5501963E3,3.2018604E2,2.3841309E1,3.9354095E0,2.5522705E1,3.4838867E-1,0E0,0E0,1.4090788E0,0E0,2.628006E1,2.6455925E1,0E0,8.5906655E-1,0E0,1.4483008E1,4.571106E0,2.1962547E-1,0E0,1.3054751E0,2.7417302E-2,1.24855175E1,4.820645E0,9.6157837E-1,9.135185E0,0E0,0E0,0E0,0E0,0E0,0E0,0E0,0E0,0E0,0E0,0E0,0E0,0E0,0E0],"parents":[2147483647,0,0,1,1,2,2,3,3,4,4,5,5,8,8,10,10,11,11,13,13,15,15,16,16,17,17,19,19,20,20,21,21,22,22,23,23,24,24],"right_children":[2,4,6,8,10,12,-1,-1,14,-1,16,18,-1,20,-1,22,24,26,-1,28,30,32,34,36,38,-1,-1,-1,-1,-1,-1,-1,-1,-1,-1,-1,-1,-1,-1],"split_conditions":[3.7E2,1.7071E4,1.866E4,1.5E4,1.7071E4,6.66E2,-9.045832E-2,1.04289666E-1,1E-45,-1.0561054E-1,1E-45,8.21E2,1.0558224E-1,6.38E2,8.733683E-2,4.56E2,6.38E2,1E-45,1.0442253E-1,1E-45,7.3E2,1E-45,6.816E3,1E-45,1E-45,-1.7344712E-1,-4.8698984E-2,2.1097412E-2,-6.7747846E-2,2.017974E-2,7.43733E-2,-1.4349523E-2,-1.0708362E-1,6.9201053E-3,1.07234396E-1,-8.310073E-2,-9.90816E-2,2.1250894E-2,-7.879671E-2],"split_indices":[14,24,24,24,23,14,0,0,0,0,0,13,0,13,0,13,13,0,0,0,13,0,2,0,0,0,0,0,0,0,0,0,0,0,0,0,0,0,0],"split_type":[0,0,0,0,0,0,0,0,1,0,1,0,0,0,0,0,0,1,0,1,0,1,0,1,1,0,0,0,0,0,0,0,0,0,0,0,0,0,0],"sum_hessian":[4.6729976E3,2.4715908E3,2.2014067E3,8.726959E1,2.3843213E3,2.1958687E3,5.5383053E0,7.1701256E1,1.5568342E1,1.845243E3,5.390782E2,8.293861E1,2.11293E3,1.1178888E1,4.389455E0,7.985188E1,4.5922632E2,3.4561605E0,7.9482445E1,8.561972E0,2.6169167E0,6.0509125E1,1.9342758E1,3.6416162E2,9.50647E1,2.2221746E0,1.2339858E0,7.505792E0,1.056179E0,1.1394026E0,1.477514E0,3.7376125E1,2.3133001E1,1.2362893E1,6.9798656E0,9.9381424E1,2.6478018E2,9.787806E0,8.527689E1],"tree_param":{"num_deleted":"0","num_feature":"25","num_nodes":"39","size_leaf_vector":"1"}},{"base_weights":[5.2570325E-4,-9.201277E-1,1.039835E0,9.266449E-1,-9.886614E-1,1.0452148E0,-8.883756E-2,1.0358895E-1,4.2086247E-1,-1.0503713E-1,-7.807539E-1,9.1072315E-1,1.0500379E-1,2.0358413E-1,8.559003E-2,-2.5146046E-1,-8.768442E-1,-1.4339783E0,1.0373431E-1,-4.7396448E-2,4.704406E-1,-5.423432E-1,2.8896654E-1,-9.335589E-1,-6.5655416E-1,-1.662821E-1,-4.6376355E-2,-3.0646801E-2,5.1763423E-2,6.499076E-2,-1.0941045E-2,-5.352527E-3,-1.0531042E-1,-2.269501E-3,8.103857E-2,-8.0799274E-2,-9.7786E-2,1.9105759E-2,-7.631039E-2],"categories":[0,1,2,3,4,5,6,7,8,9,10,11,12,13,14,15,16,17,18,19,20,21,22,24,25,26,27,28,29,30,31,32,33,34,35,36,37,38,39,40,41,42,43,44,0,1,2,3,4,5,6,7,8,9,10,11,12,13,14,15,16,17,18,19,20,21,22,23,24,25,26,27,28,29,30,12,13,14,15,16,17,21,22,23,24,25,26,27,28,29,30,31,32,33,34,42,43,44,33,34,35,42,43,44],"categories_nodes":[8,10,17,21,23,24],"categories_segments":[0,23,44,75,84,98],"categories_sizes":[23,21,31,9,14,6],"default_left":[0,0,0,0,0,0,0,0,1,0,1,0,0,0,0,0,0,1,0,0,0,1,0,1,1,0,0,0,0,0,0,0,0,0,0,0,0,0,0],"id":23,"left_children":[1,3,5,7,9,11,-1,-1,13,-1,15,17,-1,19,-1,21,23,25,-1,27,29,31,33,35,37,-1,-1,-1,-1,-1,-1,-1,-1,-1,-1,-1,-1,-1,-1],"loss_changes":[4.0815618E3,2.872025E2,2.1713623E1,4.0646744E0,2.7168213E1,3.400879E-1,0E0,0E0,1.3525591E0,0E0,2.537201E1,2.4267273E1,0E0,8.3166087E-1,0E0,1.2531256E1,4.70282E0,1.948843E-1,0E0,1.2032192E0,6.9013166E-1,1.280695E1,4.6005044E0,1.0789185E0,8.317596E0,0E0,0E0,0E0,0E0,0E0,0E0,0E0,0E0,0E0,0E0,0E0,0E0,0E0,0E0],"parents":[2147483647,0,0,1,1,2,2,3,3,4,4,5,5,8,8,10,10,11,11,13,13,15,15,16,16,17,17,19,19,20,20,21,21,22,22,23,23,24,24],"right_children":[2,4,6,8,10,12,-1,-1,14,-1,16,18,-1,20,-1,22,24,26,-1,28,30,32,34,36,38,-1,-1,-1,-1,-1,-1,-1,-1,-1,-1,-1,-1,-1,-1],"split_conditions":[3.7E2,1.7071E4,1.866E4,1.5E4,1.7071E4,6.66E2,-8.883756E-2,1.0358895E-1,1E-45,-1.0503713E-1,1E-45,8.21E2,1.0500379E-1,4.56E2,8.559003E-2,3.65E2,6.38E2,1E-45,1.0373431E-1,1E0,9.388E3,1E-45,9.749E3,1E-45,1E-45,-1.662821E-1,-4.6376355E-2,-3.0646801E-2,5.1763423E-2,6.499076E-2,-1.0941045E-2,-5.352527E-3,-1.0531042E-1,-2.269501E-3,8.103857E-2,-8.0799274E-2,-9.7786E-2,1.9105759E-2,-7.631039E-2],"split_indices":[14,24,24,24,23,14,0,0,0,0,0,13,0,13,0,13,13,0,0,17,9,0,2,0,0,0,0,0,0,0,0,0,0,0,0,0,0,0,0],"split_type":[0,0,0,0,0,0,0,0,1,0,1,0,0,0,0,0,0,1,0,0,0,1,0,1,1,0,0,0,0,0,0,0,0,0,0,0,0,0,0],"sum_hessian":[4.2636523E3,2.2609475E3,2.0027048E3,8.0453514E1,2.180494E3,1.9975895E3,5.115428E0,6.530098E1,1.5152535E1,1.6782996E3,5.021944E2,7.572894E1,1.9218605E3,1.1084422E1,4.068113E0,7.7717995E1,4.244764E2,3.3510141E0,7.237792E1,6.135926E0,4.948496E0,5.0521465E1,2.7196526E1,3.3499307E2,8.948334E1,2.1338403E0,1.2171739E0,4.520736E0,1.6151896E0,3.6866424E0,1.2618536E0,2.637979E1,2.4141678E1,1.7620758E1,9.575768E0,9.238305E1,2.4261002E2,9.903897E0,7.9579445E1],"tree_param":{"num_deleted":"0","num_feature":"25","num_nodes":"39","size_leaf_vector":"1"}},{"base_weights":[5.2537414E-4,-9.0975136E-1,1.0343825E0,9.115247E-1,-9.7791255E-1,1.0398222E0,-8.7225735E-2,1.02934554E-1,4.005353E-1,-1.0452272E-1,-7.5696635E-1,8.999227E-1,1.04484014E-1,1.9204664E-1,8.3858564E-2,-2.6342833E-1,-8.6409533E-1,-1.3721218E0,1.0309354E-1,5.559078E-2,7.16553E-2,-4.450644E-1,5.78727E-1,-9.0573114E-1,-5.743934E-1,-1.5937404E-1,-4.4162076E-2,3.3189654E-2,-3.6529392E-2,-1.6209427E-2,-1.0599829E-1,2.4590192E-2,1.2783101E-1,-7.783176E-2,-9.549963E-2,-4.935946E-3,-8.285328E-2],"categories":[0,1,2,3,4,5,6,7,8,9,10,11,12,13,14,15,16,17,18,19,20,21,22,25,26,27,28,29,30,31,32,33,34,35,36,37,38,39,40,41,42,43,44,0,1,2,3,4,5,6,7,8,9,10,11,12,13,14,15,16,17,18,19,20,21,22,23,24,25,26,27,28,29,30,14,15,16,17,23,24,25,26,27,28,29,30,31,32,33,34,35,43,44,34,35],"categories_nodes":[8,10,17,21,23,24],"categories_segments":[0,23,43,74,80,93],"categories_sizes":[23,20,31,6,13,2],"default_left":[0,0,0,0,0,0,0,0,1,0,1,0,0,0,0,0,0,1,0,0,0,1,0,1,1,0,0,0,0,0,0,0,0,0,0,0,0],"id":24,"left_children":[1,3,5,7,9,11,-1,-1,13,-1,15,17,-1,19,-1,21,23,25,-1,27,-1,29,31,33,35,-1,-1,-1,-1,-1,-1,-1,-1,-1,-1,-1,-1],"loss_changes":[3.6622354E3,2.577887E2,1.9804565E1,4.113411E0,2.8883911E1,3.3532715E-1,0E0,0E0,1.2748084E0,0E0,2.4598755E1,2.2291512E1,0E0,8.15387E-1,0E0,1.328774E1,4.1280518E0,1.7315292E-1,0E0,1.3500265E0,0E0,1.2119099E1,3.305739E0,1.3608704E0,6.7853565E0,0E0,0E0,0E0,0E0,0E0,0E0,0E0,0E0,0E0,0E0,0E0,0E0],"parents":[2147483647,0,0,1,1,2,2,3,3,4,4,5,5,8,8,10,10,11,11,13,13,15,15,16,16,17,17,19,19,21,21,22,22,23,23,24,24],"right_children":[2,4,6,8,10,12,-1,-1,14,-1,16,18,-1,20,-1,22,24,26,-1,28,-1,30,32,34,36,-1,-1,-1,-1,-1,-1,-1,-1,-1,-1,-1,-1],"split_conditions":[3.7E2,1.7071E4,1.866E4,1.5E4,1.7071E4,6.66E2,-8.7225735E-2,1.02934554E-1,1E-45,-1.0452272E-1,1E-45,8.21E2,1.04484014E-1,7.3E2,8.3858564E-2,5.47E2,7.3E2,1E-45,1.0309354E-1,8.315E3,7.16553E-2,1E-45,1.2023E4,1E-45,1E-45,-1.5937404E-1,-4.4162076E-2,3.3189654E-2,-3.6529392E-2,-1.6209427E-2,-1.0599829E-1,2.4590192E-2,1.2783101E-1,-7.783176E-2,-9.549963E-2,-4.935946E-3,-8.285328E-2],"split_indices":[14,24,24,24,23,14,0,0,0,0,0,13,0,13,0,13,13,0,0,9,0,0,3,0,0,0,0,0,0,0,0,0,0,0,0,0,0],"split_type":[0,0,0,0,0,0,0,0,1,0,1,0,0,0,0,0,0,1,0,0,0,1,0,1,1,0,0,0,0,0,0,0,0,0,0,0,0],"sum_hessian":[3.889457E3,2.0684106E3,1.8210465E3,7.417126E1,1.9942394E3,1.8163191E3,4.727421E0,5.944938E1,1.4721878E1,1.5256852E3,4.685542E2,6.9135284E1,1.7471838E3,1.0949101E1,3.7727773E0,8.4183556E1,3.8437064E2,3.2527282E0,6.588255E1,9.566311E0,1.3827897E0,6.963599E1,1.4547571E1,3.3421155E2,5.01591E1,2.0513735E0,1.2013547E0,5.902694E0,3.663617E0,4.855554E1,2.1080444E1,1.0773568E1,3.7740037E0,9.787579E1,2.3633574E2,1.6749678E1,3.340942E1],"tree_param":{"num_deleted":"0","num_feature":"25","num_nodes":"37","size_leaf_vector":"1"}},{"base_weights":[5.4029544E-4,-8.9922225E-1,1.0294213E0,8.959009E-1,-9.6702623E-1,1.0349301E0,-8.561792E-2,1.0231852E-1,3.803322E-1,-1.0406051E-1,-7.323287E-1,8.891798E-1,1.04016066E-1,1.8053234E-1,8.213869E-2,-2.4363303E-1,-8.4421915E-1,-1.3121101E0,1.02492414E-1,5.00944E-2,6.942915E-2,-4.7849187E-1,3.5483125E-1,-8.8835645E-1,-5.467817E-1,-1.5262859E-1,-4.2050604E-2,2.2883952E-2,-5.4730076E-2,-9.948172E-3,-1.0452014E-1,7.011618E-3,9.248533E-2,-7.541866E-2,-9.411123E-2,-4.4862996E-3,-8.069631E-2],"categories":[0,1,2,3,4,5,6,7,8,9,10,11,12,13,14,15,16,17,18,19,20,21,22,25,26,27,28,29,30,31,32,33,34,35,36,37,38,39,40,41,42,43,44,0,1,2,3,4,5,6,7,8,9,10,11,12,13,14,15,16,17,18,19,20,21,22,23,24,25,26,27,28,29,30,0,1,2,3,4,5,6,7,8,9,10,11,12,13,14,15,16,17,18,19,20,21,22,23,24,25,26,13,14,15,16,17,22,23,24,25,26,27,28,29,30,31,32,33,34,35,43,44,34,35],"categories_nodes":[8,10,17,19,21,23,24],"categories_segments":[0,23,43,74,101,109,122],"categories_sizes":[23,20,31,27,8,13,2],"default_left":[0,0,0,0,0,0,0,0,1,0,1,0,0,0,0,0,0,1,0,1,0,1,0,1,1,0,0,0,0,0,0,0,0,0,0,0,0],"id":25,"left_children":[1,3,5,7,9,11,-1,-1,13,-1,15,17,-1,19,-1,21,23,25,-1,27,-1,29,31,33,35,-1,-1,-1,-1,-1,-1,-1,-1,-1,-1,-1,-1],"loss_changes":[3.2863857E3,2.3137537E2,1.8089355E1,4.1682587E0,3.0759888E1,3.343506E-1,0E0,0E0,1.2037046E0,0E0,2.3801834E1,2.0502605E1,0E0,7.5870335E-1,0E0,1.1864206E1,4.1990204E0,1.5305948E-1,0E0,1.2486786E0,0E0,1.282171E1,3.8339958E0,1.4783783E0,6.325082E0,0E0,0E0,0E0,0E0,0E0,0E0,0E0,0E0,0E0,0E0,0E0,0E0],"parents":[2147483647,0,0,1,1,2,2,3,3,4,4,5,5,8,8,10,10,11,11,13,13,15,15,16,16,17,17,19,19,21,21,22,22,23,23,24,24],"right_children":[2,4,6,8,10,12,-1,-1,14,-1,16,18,-1,20,-1,22,24,26,-1,28,-1,30,32,34,36,-1,-1,-1,-1,-1,-1,-1,-1,-1,-1,-1,-1],"split_conditions":[3.7E2,1.7071E4,1.866E4,1.5E4,1.7071E4,6.66E2,-8.561792E-2,1.0231852E-1,1E-45,-1.0406051E-1,1E-45,8.21E2,1.04016066E-1,7.3E2,8.213869E-2,4.56E2,7.3E2,1E-45,1.02492414E-1,1E-45,6.942915E-2,1E-45,6.816E3,1E-45,1E-45,-1.5262859E-1,-4.2050604E-2,2.2883952E-2,-5.4730076E-2,-9.948172E-3,-1.0452014E-1,7.011618E-3,9.248533E-2,-7.541866E-2,-9.411123E-2,-4.4862996E-3,-8.069631E-2],"split_indices":[14,24,24,24,23,14,0,0,0,0,0,13,0,13,0,13,13,0,0,0,0,0,2,0,0,0,0,0,0,0,0,0,0,0,0,0,0],"split_type":[0,0,0,0,0,0,0,0,1,0,1,0,0,0,0,0,0,1,0,1,0,1,0,1,1,0,0,0,0,0,0,0,0,0,0,0,0],"sum_hessian":[3.5479763E3,1.89282E3,1.6551562E3,6.844742E1,1.8243726E3,1.6507845E3,4.3716846E0,5.4105263E1,1.4342152E1,1.3863204E3,4.3805206E2,6.311306E1,1.5876715E3,1.0840618E1,3.5015326E0,8.220197E1,3.558501E2,3.162502E0,5.9950558E1,9.520876E0,1.3197426E0,5.9178627E1,2.3023348E1,3.0813818E2,4.771191E1,1.9759971E0,1.1865051E0,7.803075E0,1.717801E0,3.616641E1,2.3012217E1,1.6103144E1,6.920204E0,9.128238E1,2.168558E2,1.6689138E1,3.102277E1],"tree_param":{"num_deleted":"0","num_feature":"25","num_nodes":"37","size_leaf_vector":"1"}},{"base_weights":[5.329396E-4,-8.887447E-1,1.0248893E0,8.791299E-1,-9.5622414E-1,1.0304767E0,-8.4010474E-2,1.0173365E-1,3.584955E-1,-1.0364454E-1,-7.0790315E-1,8.784064E-1,1.0359396E-1,1.6697049E-1,8.0427825E-2,-2.2632623E-1,-8.238753E-1,-1.2537462E0,1.0192382E-1,-2.5288513E-2,4.9441835E-1,-6.0258484E-1,1.0846103E-1,-8.705663E-1,-5.195013E-1,-1.460192E-1,-4.003689E-2,-2.122227E-2,4.8121285E-2,7.8025766E-2,-1.377471E-2,5.6954544E-2,-7.990899E-2,6.6782854E-2,-2.0191334E-2,-7.2959766E-2,-9.270007E-2,1.3201172E-2,-7.1312934E-2],"categories":[0,1,2,3,4,5,6,7,8,9,10,11,12,13,14,15,16,17,18,19,20,21,22,25,26,27,28,29,30,31,32,33,34,35,36,37,38,39,40,41,42,43,44,0,1,2,3,4,5,6,7,8,9,10,11,12,13,14,15,16,17,18,19,20,21,22,23,24,25,26,27,28,29,30,13,14,15,16,17,23,24,25,26,27,28,29,30,31,32,33,34,35,43,44,34,35,44],"categories_nodes":[8,10,17,22,23,24],"categories_segments":[0,23,43,74,81,94],"categories_sizes":[23,20,31,7,13,3],"default_left":[0,0,0,0,0,0,0,0,1,0,1,0,0,0,0,0,0,1,0,0,0,0,1,1,1,0,0,0,0,0,0,0,0,0,0,0,0,0,0],"id":26,"left_children":[1,3,5,7,9,11,-1,-1,13,-1,15,17,-1,19,-1,21,23,25,-1,27,29,31,33,35,37,-1,-1,-1,-1,-1,-1,-1,-1,-1,-1,-1,-1,-1,-1],"loss_changes":[2.9497896E3,2.0762512E2,1.654663E1,4.258507E0,3.2536255E1,3.3666992E-1,0E0,0E0,1.148291E0,0E0,2.2765274E1,1.8879501E1,0E0,7.534658E-1,0E0,1.0285924E1,4.249161E0,1.342454E-1,0E0,8.943344E-1,9.030422E-1,9.289398E0,7.7360115E0,1.5937042E0,5.9574146E0,0E0,0E0,0E0,0E0,0E0,0E0,0E0,0E0,0E0,0E0,0E0,0E0,0E0,0E0],"parents":[2147483647,0,0,1,1,2,2,3,3,4,4,5,5,8,8,10,10,11,11,13,13,15,15,16,16,17,17,19,19,20,20,21,21,22,22,23,23,24,24],"right_children":[2,4,6,8,10,12,-1,-1,14,-1,16,18,-1,20,-1,22,24,26,-1,28,30,32,34,36,38,-1,-1,-1,-1,-1,-1,-1,-1,-1,-1,-1,-1,-1,-1],"split_conditions":[3.7E2,1.7071E4,1.866E4,1.5E4,1.7071E4,6.66E2,-8.4010474E-2,1.0173365E-1,1E-45,-1.0364454E-1,1E-45,8.21E2,1.0359396E-1,5.47E2,8.0427825E-2,2.73E2,7.3E2,1E-45,1.0192382E-1,1E0,9.388E3,4.004E3,1E-45,1E-45,1E-45,-1.460192E-1,-4.003689E-2,-2.122227E-2,4.8121285E-2,7.8025766E-2,-1.377471E-2,5.6954544E-2,-7.990899E-2,6.6782854E-2,-2.0191334E-2,-7.2959766E-2,-9.270007E-2,1.3201172E-2,-7.1312934E-2],"split_indices":[14,24,24,24,23,14,0,0,0,0,0,13,0,13,0,13,13,0,0,17,9,1,0,0,0,0,0,0,0,0,0,0,0,0,0,0,0,0,0],"split_type":[0,0,0,0,0,0,0,0,1,0,1,0,0,0,0,0,0,1,0,0,0,0,1,1,1,0,0,0,0,0,0,0,0,0,0,0,0,0,0],"sum_hessian":[3.236192E3,1.7323842E3,1.5038076E3,6.325139E1,1.6691328E3,1.4997618E3,4.045733E0,4.922909E1,1.4022296E1,1.2591763E3,4.0995654E2,5.7618385E1,1.4421436E3,1.0769758E1,3.2525373E0,8.013712E1,3.2981943E2,3.0803509E0,5.4538036E1,7.3670254E0,3.402733E0,3.7354958E1,4.278216E1,2.8434128E2,4.547816E1,1.9077581E0,1.1725928E0,5.8054237E0,1.5616016E0,2.1819038E0,1.2208292E0,5.090763E0,3.2264194E1,1.4856169E1,2.7925993E1,8.527046E1,1.990708E2,1.0492285E1,3.4985874E1],"tree_param":{"num_deleted":"0","num_feature":"25","num_nodes":"39","size_leaf_vector":"1"}},{"base_weights":[5.7008205E-4,-8.7805045E-1,1.020732E0,8.6387306E-1,-9.452197E-1,1.0264078E0,-8.240092E-2,1.0117345E-1,3.432881E-1,-1.032696E-1,-6.8298453E-1,8.83309E-1,1.0328795E-1,1.08649535E-2,5.7340777E-1,-2.0932004E-1,-8.0309063E-1,-1.419129E0,1.0176795E-1,-2.3265453E-1,6.189487E-2,1.7231376E-1,7.57842E-1,-3.8248405E-1,5.2507967E-1,-8.522812E-1,-4.927673E-1,-1.716551E-1,-3.7230346E-2,-4.6191633E-2,3.617397E-2,4.3763246E-2,-8.926191E-3,1.0070863E-2,8.782511E-2,-1.1945999E-2,-1.0370749E-1,2.3151923E-2,1.1398228E-1,-7.0455454E-2,-9.1256484E-2,-2.4994079E-3,-7.6463066E-2],"categories":[0,1,2,3,4,5,6,7,8,9,10,11,12,13,14,15,16,17,18,19,20,21,22,23,24,25,26,27,28,29,30,31,25,26,27,28,29,30,31,32,33,34,35,36,37,38,39,40,41,42,43,44,0,1,2,3,4,5,6,7,8,9,10,11,12,13,14,15,16,17,18,19,20,21,22,23,24,25,26,27,28,29,30,14,15,16,17,23,24,25,26,27,28,29,30,31,32,33,34,35,43,44,34,35],"categories_nodes":[8,10,17,23,25,26],"categories_segments":[0,32,52,83,89,102],"categories_sizes":[32,20,31,6,13,2],"default_left":[0,0,0,0,0,0,0,0,1,0,1,0,0,0,0,0,0,1,0,0,0,0,0,1,0,1,1,0,0,0,0,0,0,0,0,0,0,0,0,0,0,0,0],"id":27,"left_children":[1,3,5,7,9,11,-1,-1,13,-1,15,17,-1,19,21,23,25,27,-1,29,-1,31,33,35,37,39,41,-1,-1,-1,-1,-1,-1,-1,-1,-1,-1,-1,-1,-1,-1,-1,-1],"loss_changes":[2.647671E3,1.8650598E2,1.5156982E1,4.2285957E0,3.435962E1,3.499756E-1,0E0,0E0,1.115475E0,0E0,2.175232E1,2.1827568E1,0E0,1.1831788E0,5.0898314E-1,1.0284574E1,4.266693E0,6.220827E-1,0E0,9.489859E-1,0E0,3.1788746E-1,3.568771E-1,1.1022924E1,2.5424185E0,1.7049103E0,5.6245584E0,0E0,0E0,0E0,0E0,0E0,0E0,0E0,0E0,0E0,0E0,0E0,0E0,0E0,0E0,0E0,0E0],"parents":[2147483647,0,0,1,1,2,2,3,3,4,4,5,5,8,8,10,10,11,11,13,13,14,14,15,15,16,16,17,17,19,19,21,21,22,22,23,23,24,24,25,25,26,26],"right_children":[2,4,6,8,10,12,-1,-1,14,-1,16,18,-1,20,22,24,26,28,-1,30,-1,32,34,36,38,40,42,-1,-1,-1,-1,-1,-1,-1,-1,-1,-1,-1,-1,-1,-1,-1,-1],"split_conditions":[3.7E2,1.7071E4,1.866E4,1.5E4,1.7071E4,7.4E2,-8.240092E-2,1.0117345E-1,1E-45,-1.032696E-1,1E-45,9.12E2,1.0328795E-1,5.47E2,5.115E3,5.47E2,7.3E2,1E-45,1.0176795E-1,1.5372E4,6.189487E-2,3.713E3,1.4608E4,1E-45,1.2023E4,1E-45,1E-45,-1.716551E-1,-3.7230346E-2,-4.6191633E-2,3.617397E-2,4.3763246E-2,-8.926191E-3,1.0070863E-2,8.782511E-2,-1.1945999E-2,-1.0370749E-1,2.3151923E-2,1.1398228E-1,-7.0455454E-2,-9.1256484E-2,-2.4994079E-3,-7.6463066E-2],"split_indices":[14,24,24,24,23,14,0,0,0,0,0,13,0,13,2,13,13,0,0,5,0,2,5,0,3,0,0,0,0,0,0,0,0,0,0,0,0,0,0,0,0,0,0],"split_type":[0,0,0,0,0,0,0,0,1,0,1,0,0,0,0,0,0,1,0,0,0,0,0,1,0,1,1,0,0,0,0,0,0,0,0,0,0,0,0,0,0,0,0],"sum_hessian":[2.9518848E3,1.586039E3,1.365846E3,5.8447166E1,1.5275917E3,1.3620988E3,3.7472088E0,4.47838E1,1.3663367E1,1.143279E3,3.8431265E2,6.4884575E1,1.2972142E3,6.017665E0,7.6457024E0,7.829238E1,3.0602026E2,3.0506353E0,6.183394E1,4.7377386E0,1.2799263E0,3.0175781E0,4.628124E0,6.3741882E1,1.4550501E1,2.6264148E2,4.33788E1,1.8774501E0,1.1731853E0,3.5798469E0,1.1578919E0,1.1639303E0,1.8536478E0,1.0010847E0,3.6270394E0,4.631453E1,1.7427351E1,1.0779528E1,3.770974E0,7.97932E1,1.8284827E2,1.6345818E1,2.7032984E1],"tree_param":{"num_deleted":"0","num_feature":"25","num_nodes":"43","size_leaf_vector":"1"}},{"base_weights":[5.995447E-4,-8.669864E-1,1.0169537E0,8.484843E-1,-9.3385583E-1,1.0227287E0,-8.0787845E-2,1.00631855E-1,3.298483E-1,-1.02931075E-1,-6.574703E-1,8.7321717E-1,1.0294966E-1,1.5473051E-1,7.710343E-2,-1.9300008E-1,-7.816661E-1,-1.3553748E0,1.0128158E-1,3.062498E-2,6.639097E-2,-4.139111E-1,3.2442495E-1,-8.3343434E-1,-4.6638116E-1,-1.6429195E-1,-3.5416E-2,2.0294532E-2,-5.2420657E-2,-5.896579E-3,-1.0232528E-1,7.7468686E-2,5.133034E-3,-6.790793E-2,-8.977162E-2,-2.2679963E-3,-7.417714E-2],"categories":[0,1,2,3,4,5,6,7,8,9,10,11,12,13,14,15,16,17,18,19,20,21,22,25,26,27,28,29,30,31,32,33,34,35,36,37,38,39,40,41,42,43,44,0,1,2,3,4,5,6,7,8,9,10,11,12,13,14,15,16,17,18,19,20,21,22,23,24,25,26,27,28,29,30,0,1,2,3,4,5,6,7,8,9,10,11,12,13,14,15,16,17,18,19,20,21,22,23,24,25,26,13,14,15,16,17,22,23,24,25,26,27,28,29,30,31,32,33,34,35,43,44,34,35],"categories_nodes":[8,10,17,19,21,23,24],"categories_segments":[0,23,43,74,101,109,122],"categories_sizes":[23,20,31,27,8,13,2],"default_left":[0,0,0,0,0,0,0,0,1,0,1,0,0,0,0,0,0,1,0,1,0,1,0,1,1,0,0,0,0,0,0,0,0,0,0,0,0],"id":28,"left_children":[1,3,5,7,9,11,-1,-1,13,-1,15,17,-1,19,-1,21,23,25,-1,27,-1,29,31,33,35,-1,-1,-1,-1,-1,-1,-1,-1,-1,-1,-1,-1],"loss_changes":[2.376375E3,1.6757324E2,1.3905151E1,4.176113E0,3.6253906E1,3.5351562E-1,0E0,0E0,9.8835325E-1,0E0,2.0738007E1,2.009673E1,0E0,7.0727193E-1,0E0,9.018856E0,4.2693787E0,5.6263924E-1,0E0,1.0917387E0,0E0,1.181584E1,2.888822E0,1.8101196E0,5.178911E0,0E0,0E0,0E0,0E0,0E0,0E0,0E0,0E0,0E0,0E0,0E0,0E0],"parents":[2147483647,0,0,1,1,2,2,3,3,4,4,5,5,8,8,10,10,11,11,13,13,15,15,16,16,17,17,19,19,21,21,22,22,23,23,24,24],"right_children":[2,4,6,8,10,12,-1,-1,14,-1,16,18,-1,20,-1,22,24,26,-1,28,-1,30,32,34,36,-1,-1,-1,-1,-1,-1,-1,-1,-1,-1,-1,-1],"split_conditions":[3.7E2,1.7071E4,1.866E4,1.5E4,1.7071E4,7.4E2,-8.0787845E-2,1.00631855E-1,1E-45,-1.02931075E-1,1E-45,9.12E2,1.0294966E-1,7.3E2,7.710343E-2,4.56E2,7.3E2,1E-45,1.0128158E-1,1E-45,6.639097E-2,1E-45,1.5057E4,1E-45,1E-45,-1.6429195E-1,-3.5416E-2,2.0294532E-2,-5.2420657E-2,-5.896579E-3,-1.0232528E-1,7.7468686E-2,5.133034E-3,-6.790793E-2,-8.977162E-2,-2.2679963E-3,-7.417714E-2],"split_indices":[14,24,24,24,23,14,0,0,0,0,0,13,0,13,0,13,13,0,0,0,0,0,4,0,0,0,0,0,0,0,0,0,0,0,0,0,0],"split_type":[0,0,0,0,0,0,0,0,1,0,1,0,0,0,0,0,0,1,0,1,0,1,0,1,1,0,0,0,0,0,0,0,0,0,0,0,0],"sum_hessian":[2.6929915E3,1.4529031E3,1.2400884E3,5.4071144E1,1.3988319E3,1.2366145E3,3.4738917E0,4.0734325E1,1.3336821E1,1.0377139E3,3.611181E2,5.91847E1,1.1774297E3,1.051419E1,2.8226304E0,7.672697E1,2.8439114E2,2.9754076E0,5.6209293E1,9.3061E0,1.2080902E0,5.3910362E1,2.28166E1,2.4286972E2,4.1521416E1,1.8136184E0,1.1617893E0,7.584666E0,1.7214341E0,3.4759506E1,1.9150858E1,7.920712E0,1.4895888E1,7.4806625E1,1.680631E2,1.6315952E1,2.5205462E1],"tree_param":{"num_deleted":"0","num_feature":"25","num_nodes":"37","size_leaf_vector":"1"}},{"base_weights":[5.7936844E-4,-8.556851E-1,1.0134643E0,8.305121E-1,-9.2224133E-1,1.0193492E0,-7.9170756E-2,1.001033E-1,3.108685E-1,-1.02624886E-1,-6.319689E-1,8.629537E-1,1.026439E-1,-2.4191716E-3,5.3732264E-1,-2.0777312E-1,-7.6894224E-1,-1.2937809E0,1.00813165E-1,-2.2826575E-1,5.9205946E-2,3.970335E-3,6.5972877E-1,-5.581408E-1,4.8221633E-2,-8.2352674E-1,-5.656164E-1,-1.5713279E-1,-3.3686727E-2,-4.5805003E-2,3.4563523E-2,2.4428286E-2,8.422586E-2,-6.5557086E-3,-1.0380947E-1,1.0517931E-1,-8.557787E-3,-6.61205E-2,-8.90678E-2,-2.1778127E-2,-7.3339805E-2],"categories":[0,1,2,3,4,5,6,7,8,9,10,11,12,13,14,15,16,17,18,19,20,21,22,23,24,25,26,27,28,29,30,31,25,27,28,29,30,31,32,33,34,35,36,37,38,39,40,41,42,43,44,0,1,2,3,4,5,6,7,8,9,10,11,12,13,14,15,16,17,18,19,20,21,22,23,24,25,26,27,28,29,30,11,12,20,21,22,23,24,26,0,1,2,3,4,5,6,7,8,9,10,13,14,15,16,17,18,19,21,22,23,24,25,26,27,28,29,30,31,32,33,34,35,36,37,38,39,40,41,42,43,44,25,27,28,29,30,31,32,33,34,42,43,44,33,34,35],"categories_nodes":[8,10,17,23,24,25,26],"categories_segments":[0,32,51,82,90,132,144],"categories_sizes":[32,19,31,8,42,12,3],"default_left":[0,0,0,0,0,0,0,0,1,0,1,0,0,0,0,0,0,1,0,0,0,0,0,1,1,1,1,0,0,0,0,0,0,0,0,0,0,0,0,0,0],"id":29,"left_children":[1,3,5,7,9,11,-1,-1,13,-1,15,17,-1,19,21,23,25,27,-1,29,-1,-1,31,33,35,37,39,-1,-1,-1,-1,-1,-1,-1,-1,-1,-1,-1,-1,-1,-1],"loss_changes":[2.1329426E3,1.5032892E2,1.2775269E1,4.2195663E0,3.8072388E1,3.5986328E-1,0E0,0E0,1.0004644E0,0E0,1.9649384E1,1.852396E1,0E0,1.0621425E0,4.7201276E-1,7.613633E0,2.3903046E0,5.081749E-1,0E0,9.133312E-1,0E0,0E0,2.8718328E-1,8.393367E0,6.776473E0,1.5985718E0,3.2051868E0,0E0,0E0,0E0,0E0,0E0,0E0,0E0,0E0,0E0,0E0,0E0,0E0,0E0,0E0],"parents":[2147483647,0,0,1,1,2,2,3,3,4,4,5,5,8,8,10,10,11,11,13,13,14,14,15,15,16,16,17,17,19,19,22,22,23,23,24,24,25,25,26,26],"right_children":[2,4,6,8,10,12,-1,-1,14,-1,16,18,-1,20,22,24,26,28,-1,30,-1,-1,32,34,36,38,40,-1,-1,-1,-1,-1,-1,-1,-1,-1,-1,-1,-1,-1,-1],"split_conditions":[3.7E2,1.7071E4,1.866E4,1.5E4,1.7071E4,7.4E2,-7.9170756E-2,1.001033E-1,1E-45,-1.02624886E-1,1E-45,9.12E2,1.026439E-1,5.47E2,1.8826E4,2.73E2,6.38E2,1E-45,1.00813165E-1,1E0,5.9205946E-2,3.970335E-3,4.474E3,1E-45,1E-45,1E-45,1E-45,-1.5713279E-1,-3.3686727E-2,-4.5805003E-2,3.4563523E-2,2.4428286E-2,8.422586E-2,-6.5557086E-3,-1.0380947E-1,1.0517931E-1,-8.557787E-3,-6.61205E-2,-8.90678E-2,-2.1778127E-2,-7.3339805E-2],"split_indices":[14,24,24,24,23,14,0,0,0,0,0,13,0,13,8,13,13,0,0,17,0,0,2,0,0,0,0,0,0,0,0,0,0,0,0,0,0,0,0,0,0],"split_type":[0,0,0,0,0,0,0,0,1,0,1,0,0,0,0,0,0,1,0,0,0,0,0,1,1,1,1,0,0,0,0,0,0,0,0,0,0,0,0,0,0],"sum_hessian":[2.4572976E3,1.3316844E3,1.1256133E3,5.013136E1,1.2815531E3,1.1223896E3,3.2236984E0,3.7047764E1,1.3083594E1,9.4162415E2,3.399289E2,5.3995506E1,1.0683942E3,5.9044323E0,7.179162E0,8.3586075E1,2.5634283E2,2.906432E0,5.1089073E1,4.7252865E0,1.1791457E0,1.6787746E0,5.500387E0,3.4790165E1,4.8795906E1,1.9968535E2,5.6657463E1,1.7552522E0,1.1511797E0,3.5184138E0,1.2068726E0,2.3927352E0,3.107652E0,1.7730097E1,1.7060068E1,4.9331965E0,4.386271E1,6.1608498E1,1.3807686E2,1.91841E1,3.7473366E1],"tree_param":{"num_deleted":"0","num_feature":"25","num_nodes":"41","size_leaf_vector":"1"}},{"base_weights":[5.938001E-4,-8.437756E-1,1.0102273E0,8.142014E-1,-9.099954E-1,1.0162336E0,-7.754999E-2,9.958257E-2,2.9820478E-1,-1.0234741E-1,-6.056922E-1,8.52486E-1,1.0236708E-1,1.365027E-1,7.393417E-2,-1.4155924E-1,-7.319941E-1,-1.234881E0,1.0035779E-1,1.8727956E-2,6.359409E-2,-2.5488544E-1,1.0605962E0,-7.777059E-1,-1.4688194E-1,-1.5027498E-1,-3.2038767E-2,-6.205951E-2,1.5656194E-2,3.7250575E-2,-4.2751305E-2,1.23055734E-1,3.4984972E-2,-6.491504E-2,-8.8781536E-2,7.669399E-2,-4.6486434E-2],"categories":[0,1,2,3,4,5,6,7,8,9,10,11,12,13,14,15,16,17,18,19,20,21,22,17,25,26,27,28,29,30,31,32,33,34,35,36,37,38,39,40,41,42,43,44,0,1,2,3,4,5,6,7,8,9,10,11,12,13,14,15,16,17,18,19,20,21,22,23,24,25,26,27,28,29,30,12,13,14,15,16,19,20,21,22,23,24,17,26,27,28,29,30,32,34,35,44,35,44],"categories_nodes":[8,10,17,21,23,24],"categories_segments":[0,23,44,75,86,96],"categories_sizes":[23,21,31,11,10,2],"default_left":[0,0,0,0,0,0,0,0,1,0,1,0,0,0,0,0,0,1,0,0,0,1,0,1,1,0,0,0,0,0,0,0,0,0,0,0,0],"id":30,"left_children":[1,3,5,7,9,11,-1,-1,13,-1,15,17,-1,19,-1,21,23,25,-1,27,-1,29,31,33,35,-1,-1,-1,-1,-1,-1,-1,-1,-1,-1,-1,-1],"loss_changes":[1.9139434E3,1.3497198E2,1.1754761E1,4.1530647E0,3.9993896E1,3.687744E-1,0E0,0E0,8.827326E-1,0E0,1.8767052E1,1.7094452E1,0E0,6.537837E-1,0E0,9.820549E0,6.6475525E0,4.5960045E-1,0E0,9.949377E-1,0E0,7.184771E0,3.2240725E-1,2.739624E0,6.0380287E0,0E0,0E0,0E0,0E0,0E0,0E0,0E0,0E0,0E0,0E0,0E0,0E0],"parents":[2147483647,0,0,1,1,2,2,3,3,4,4,5,5,8,8,10,10,11,11,13,13,15,15,16,16,17,17,19,19,21,21,22,22,23,23,24,24],"right_children":[2,4,6,8,10,12,-1,-1,14,-1,16,18,-1,20,-1,22,24,26,-1,28,-1,30,32,34,36,-1,-1,-1,-1,-1,-1,-1,-1,-1,-1,-1,-1],"split_conditions":[3.7E2,1.7071E4,1.866E4,1.5E4,1.7071E4,7.4E2,-7.754999E-2,9.958257E-2,1E-45,-1.0234741E-1,1E-45,9.12E2,1.0236708E-1,7.3E2,7.393417E-2,6.38E2,8.21E2,1E-45,1.0035779E-1,9.692E3,6.359409E-2,1E-45,2E4,1E-45,1E-45,-1.5027498E-1,-3.2038767E-2,-6.205951E-2,1.5656194E-2,3.7250575E-2,-4.2751305E-2,1.23055734E-1,3.4984972E-2,-6.491504E-2,-8.8781536E-2,7.669399E-2,-4.6486434E-2],"split_indices":[14,24,24,24,23,14,0,0,0,0,0,13,0,13,0,13,13,0,0,4,0,0,7,0,0,0,0,0,0,0,0,0,0,0,0,0,0],"split_type":[0,0,0,0,0,0,0,0,1,0,1,0,0,0,0,0,0,1,0,0,0,1,0,1,1,0,0,0,0,0,0,0,0,0,0,0,0],"sum_hessian":[2.2430854E3,1.2216055E3,1.02147986E3,4.6483387E1,1.1751221E3,1.01848517E3,2.9946878E0,3.369372E1,1.2789667E1,8.542117E2,3.209104E2,4.9272476E1,9.692127E2,1.0317239E1,2.4724286E0,6.91007E1,2.5180971E2,2.8416355E0,4.643084E1,9.18806E0,1.1291792E0,6.38679E1,5.2327976E0,2.3325735E2,1.8552347E1,1.7003257E0,1.1413097E0,1.0083748E0,8.179685E0,1.3531537E1,5.0336365E1,3.6327393E0,1.600058E0,1.1079589E2,1.22461464E2,4.4246984E0,1.4127648E1],"tree_param":{"num_deleted":"0","num_feature":"25","num_nodes":"37","size_leaf_vector":"1"}},{"base_weights":[7.2096346E-4,-8.317143E-1,1.0072086E0,7.952182E-1,-8.9761394E-1,1.013348E0,-7.5926565E-2,9.90647E-2,2.8036615E-1,-1.02095425E-1,-5.797621E-1,8.4178495E-1,1.0211593E-1,1.2535845E-1,7.226059E-2,-2.1186146E-1,-7.39644E-1,-1.1790442E0,9.9910855E-2,1.2412451E-2,6.1705697E-2,-5.2302486E-1,3.1250484E-2,-8.341364E-1,-6.0080457E-1,-1.437885E-1,-3.0468583E-2,2.618899E-2,-3.4145903E-2,5.1258665E-2,-6.8340935E-2,5.3631153E-2,-2.2400951E-2,-6.286149E-2,-8.935304E-2,-3.6649752E-2,-7.117163E-2],"categories":[0,1,2,3,4,5,6,7,8,9,10,11,12,13,14,15,16,17,18,19,20,21,22,27,28,29,30,31,32,33,34,35,37,38,39,40,41,42,43,44,0,1,2,3,4,5,6,7,8,9,10,11,12,13,14,15,16,17,18,19,20,21,22,23,24,25,26,27,28,29,30,14,15,16,17,23,24,25,26,27,28,29,30,31,32,40,41,42,43,44,31,32,33,34,35],"categories_nodes":[8,10,17,22,23,24],"categories_segments":[0,23,40,71,79,90],"categories_sizes":[23,17,31,8,11,5],"default_left":[0,0,0,0,0,0,0,0,1,0,1,0,0,0,0,0,0,1,0,0,0,0,1,1,1,0,0,0,0,0,0,0,0,0,0,0,0],"id":31,"left_children":[1,3,5,7,9,11,-1,-1,13,-1,15,17,-1,19,-1,21,23,25,-1,27,-1,29,31,33,35,-1,-1,-1,-1,-1,-1,-1,-1,-1,-1,-1,-1],"loss_changes":[1.7172001E3,1.209845E2,1.083136E1,4.1694756E0,4.1692688E1,3.8000488E-1,0E0,0E0,8.386812E-1,0E0,1.7715538E1,1.5794369E1,0E0,6.169781E-1,0E0,7.08523E0,2.272232E0,4.172349E-1,0E0,9.8700356E-1,0E0,7.167308E0,7.0048914E0,9.4234467E-1,2.056839E0,0E0,0E0,0E0,0E0,0E0,0E0,0E0,0E0,0E0,0E0,0E0,0E0],"parents":[2147483647,0,0,1,1,2,2,3,3,4,4,5,5,8,8,10,10,11,11,13,13,15,15,16,16,17,17,19,19,21,21,22,22,23,23,24,24],"right_children":[2,4,6,8,10,12,-1,-1,14,-1,16,18,-1,20,-1,22,24,26,-1,28,-1,30,32,34,36,-1,-1,-1,-1,-1,-1,-1,-1,-1,-1,-1,-1],"split_conditions":[3.7E2,1.7071E4,1.866E4,1.5E4,1.7071E4,7.4E2,-7.5926565E-2,9.90647E-2,1E-45,-1.02095425E-1,1E-45,9.12E2,1.0211593E-1,7.3E2,7.226059E-2,2.73E2,4.56E2,1E-45,9.9910855E-2,8.315E3,6.1705697E-2,4.004E3,1E-45,1E-45,1E-45,-1.437885E-1,-3.0468583E-2,2.618899E-2,-3.4145903E-2,5.1258665E-2,-6.8340935E-2,5.3631153E-2,-2.2400951E-2,-6.286149E-2,-8.935304E-2,-3.6649752E-2,-7.117163E-2],"split_indices":[14,24,24,24,23,14,0,0,0,0,0,13,0,13,0,13,13,0,0,9,0,1,0,0,0,0,0,0,0,0,0,0,0,0,0,0,0],"split_type":[0,0,0,0,0,0,0,0,1,0,1,0,0,0,0,0,0,1,0,0,0,0,1,1,1,0,0,0,0,0,0,0,0,0,0,0,0],"sum_hessian":[2.0475667E3,1.1207786E3,9.267881E2,4.319955E1,1.077579E3,9.2400305E2,2.7850544E0,3.064363E1,1.2555922E1,7.747358E2,3.0284314E2,4.497443E1,8.790286E2,1.0247555E1,2.3083673E0,9.244503E1,2.1039812E2,2.7793355E0,4.2195095E1,9.167069E0,1.0804849E0,4.004252E1,5.2402515E1,1.2221328E2,8.8184845E1,1.6472028E0,1.1321328E0,5.5290494E0,3.6380203E0,5.075266E0,3.496725E1,1.7223269E1,3.5179245E1,2.9997242E1,9.221604E1,2.9714891E1,5.846995E1],"tree_param":{"num_deleted":"0","num_feature":"25","num_nodes":"37","size_leaf_vector":"1"}},{"base_weights":[7.290303E-4,-8.1905633E-1,1.0043781E0,7.768871E-1,-8.8462174E-1,1.0106634E0,-7.43021E-2,9.854513E-2,2.6673642E-1,-1.0186603E-1,-5.5390227E-1,8.308229E-1,1.01887584E-1,1.18662044E-1,7.059814E-2,-1.9569953E-1,-7.169056E-1,-1.1264491E0,9.9468015E-2,-4.57258E-2,4.224466E-1,-3.5948557E-1,2.763754E-1,-8.1606424E-1,-5.74464E-1,-1.3771151E-1,-2.897276E-2,1.3806398E-2,-4.8896503E-2,7.3109396E-2,-1.8448224E-2,-9.873374E-3,-1.01458885E-1,9.2447035E-2,3.9106705E-3,-6.028641E-2,-8.793681E-2,-3.4267057E-2,-6.878977E-2],"categories":[0,1,2,3,4,5,6,7,8,9,10,11,12,13,14,15,16,17,18,19,20,21,22,27,28,29,30,31,32,33,34,35,37,38,39,40,41,42,43,44,0,1,2,3,4,5,6,7,8,9,10,11,12,13,14,15,16,17,18,19,20,21,22,23,24,25,26,27,28,29,30,14,15,16,17,23,24,25,26,0,1,2,3,4,5,6,7,8,9,10,11,12,13,16,17,18,19,20,21,22,24,25,26,27,28,29,30,31,32,33,34,35,36,37,38,39,40,41,42,43,44,27,28,29,30,31,32,40,41,42,43,44,31,32,33,34,35],"categories_nodes":[8,10,17,21,22,23,24],"categories_segments":[0,23,40,71,79,121,132],"categories_sizes":[23,17,31,8,42,11,5],"default_left":[0,0,0,0,0,0,0,0,1,0,1,0,0,0,0,0,0,1,0,0,0,1,1,1,1,0,0,0,0,0,0,0,0,0,0,0,0,0,0],"id":32,"left_children":[1,3,5,7,9,11,-1,-1,13,-1,15,17,-1,19,-1,21,23,25,-1,27,29,31,33,35,37,-1,-1,-1,-1,-1,-1,-1,-1,-1,-1,-1,-1,-1,-1],"loss_changes":[1.5404336E3,1.0851868E2,9.9956665E0,4.120558E0,4.333557E1,3.9282227E-1,0E0,0E0,7.8298366E-1,0E0,1.6664032E1,1.4610823E1,0E0,5.7705724E-1,0E0,7.1650877E0,2.3196182E0,3.8089085E-1,0E0,7.3137414E-1,8.877868E-1,1.1563322E1,3.670405E0,1.008667E0,1.9835167E0,0E0,0E0,0E0,0E0,0E0,0E0,0E0,0E0,0E0,0E0,0E0,0E0,0E0,0E0],"parents":[2147483647,0,0,1,1,2,2,3,3,4,4,5,5,8,8,10,10,11,11,13,13,15,15,16,16,17,17,19,19,20,20,21,21,22,22,23,23,24,24],"right_children":[2,4,6,8,10,12,-1,-1,14,-1,16,18,-1,20,-1,22,24,26,-1,28,30,32,34,36,38,-1,-1,-1,-1,-1,-1,-1,-1,-1,-1,-1,-1,-1,-1],"split_conditions":[3.7E2,1.7071E4,1.866E4,1.5E4,1.7071E4,7.4E2,-7.43021E-2,9.854513E-2,1E-45,-1.0186603E-1,1E-45,9.12E2,1.01887584E-1,5.47E2,7.059814E-2,5.47E2,4.56E2,1E-45,9.9468015E-2,1E0,9.388E3,1E-45,1E-45,1E-45,1E-45,-1.3771151E-1,-2.897276E-2,1.3806398E-2,-4.8896503E-2,7.3109396E-2,-1.8448224E-2,-9.873374E-3,-1.01458885E-1,9.2447035E-2,3.9106705E-3,-6.028641E-2,-8.793681E-2,-3.4267057E-2,-6.878977E-2],"split_indices":[14,24,24,24,23,14,0,0,0,0,0,13,0,13,0,13,13,0,0,15,9,0,0,0,0,0,0,0,0,0,0,0,0,0,0,0,0,0,0],"split_type":[0,0,0,0,0,0,0,0,1,0,1,0,0,0,0,0,0,1,0,0,0,1,1,1,1,0,0,0,0,0,0,0,0,0,0,0,0,0,0],"sum_hessian":[1.8702377E3,1.0295116E3,8.407261E2,4.0197807E1,9.893138E2,8.3813293E2,2.593128E0,2.7871473E1,1.2326333E1,7.025104E2,2.8680338E2,4.1063656E1,7.9706934E2,1.0168551E1,2.157782E0,9.038385E1,1.9641954E2,2.7183552E0,3.83453E1,7.149306E0,3.0192456E0,6.727971E1,2.3104141E1,1.1301599E2,8.340355E1,1.5947512E0,1.1236039E0,5.540458E0,1.6088476E0,1.865822E0,1.1534235E0,4.8947693E1,1.8332014E1,5.415502E0,1.7688639E1,2.8283566E1,8.473242E1,2.8725664E1,5.4677887E1],"tree_param":{"num_deleted":"0","num_feature":"25","num_nodes":"39","size_leaf_vector":"1"}},{"base_weights":[6.97167E-4,-8.0572325E-1,1.0017084E0,7.582023E-1,-8.7083733E-1,1.008153E0,-7.267868E-2,9.801933E-2,2.5243378E-1,-1.0165667E-1,-5.2772176E-1,8.195728E-1,1.0167947E-1,-2.9097488E-2,3.44493E-1,-1.8051231E-1,-6.935692E-1,-1.0771074E0,9.902516E-2,6.0719937E-2,6.1418283E-1,-3.0369157E-1,3.7876308E-1,-7.972841E-1,-5.480338E-1,-1.3205372E-1,-2.754803E-2,-3.8768835E-2,4.0502008E-2,-8.524115E-3,8.088962E-2,-1.0543625E-2,-1.0052532E-1,8.004372E-2,-7.476849E-3,-5.769377E-2,-8.645847E-2,-3.1973004E-2,-6.635453E-2],"categories":[27,28,29,30,31,32,33,34,35,37,38,39,40,41,42,43,44,0,1,2,3,4,5,6,7,8,9,10,11,12,13,14,15,16,17,18,19,20,21,22,23,24,25,26,27,28,29,30,15,16,17,24,25,26,17,26,27,28,29,30,31,32,40,41,42,43,44,31,32,33,34,35],"categories_nodes":[10,17,21,22,23,24],"categories_segments":[0,17,48,54,56,67],"categories_sizes":[17,31,6,2,11,5],"default_left":[0,0,0,0,0,0,0,0,0,0,1,0,0,0,0,0,0,1,0,0,0,1,1,1,1,0,0,0,0,0,0,0,0,0,0,0,0,0,0],"id":33,"left_children":[1,3,5,7,9,11,-1,-1,13,-1,15,17,-1,-1,19,21,23,25,-1,27,29,31,33,35,37,-1,-1,-1,-1,-1,-1,-1,-1,-1,-1,-1,-1,-1,-1],"loss_changes":[1.3814518E3,9.7177246E1,9.238281E0,4.0660553E0,4.498401E1,4.0704346E-1,0E0,0E0,7.5386673E-1,0E0,1.5622253E1,1.35318985E1,0E0,0E0,8.528265E-1,6.298144E0,2.351242E0,3.500414E-1,0E0,1.2033292E0,8.661518E-1,1.0201468E1,3.2430282E0,1.0680084E0,1.8992004E0,0E0,0E0,0E0,0E0,0E0,0E0,0E0,0E0,0E0,0E0,0E0,0E0,0E0,0E0],"parents":[2147483647,0,0,1,1,2,2,3,3,4,4,5,5,8,8,10,10,11,11,14,14,15,15,16,16,17,17,19,19,20,20,21,21,22,22,23,23,24,24],"right_children":[2,4,6,8,10,12,-1,-1,14,-1,16,18,-1,-1,20,22,24,26,-1,28,30,32,34,36,38,-1,-1,-1,-1,-1,-1,-1,-1,-1,-1,-1,-1,-1,-1],"split_conditions":[3.7E2,1.7071E4,1.866E4,1.5E4,1.7071E4,7.4E2,-7.267868E-2,9.801933E-2,9.692E3,-1.0165667E-1,1E-45,9.12E2,1.0167947E-1,-2.9097488E-2,8.288E3,6.38E2,4.56E2,1E-45,9.902516E-2,4.56E2,1.8797E4,1E-45,1E-45,1E-45,1E-45,-1.3205372E-1,-2.754803E-2,-3.8768835E-2,4.0502008E-2,-8.524115E-3,8.088962E-2,-1.0543625E-2,-1.0052532E-1,8.004372E-2,-7.476849E-3,-5.769377E-2,-8.645847E-2,-3.1973004E-2,-6.635453E-2],"split_indices":[14,24,24,24,23,14,0,0,4,0,0,13,0,0,2,13,13,0,0,13,8,0,0,0,0,0,0,0,0,0,0,0,0,0,0,0,0,0,0],"split_type":[0,0,0,0,0,0,0,0,0,0,1,0,0,0,0,0,0,1,0,0,0,1,1,1,1,0,0,0,0,0,0,0,0,0,0,0,0,0,0],"sum_hessian":[1.7093363E3,9.467911E2,7.625452E2,3.7418587E1,9.093725E2,7.6012787E2,2.4173653E0,2.535277E1,1.2065818E1,6.369023E2,2.724702E2,3.7506023E1,7.226219E2,1.4349337E0,1.0630884E1,8.875202E1,1.8371819E2,2.6580062E0,3.4848015E1,5.7771735E0,4.8537107E0,7.3107285E1,1.5644736E1,1.0465683E2,7.9061356E1,1.5423273E0,1.115679E0,2.4544883E0,3.3226852E0,1.1794102E0,3.6743007E0,5.7896515E1,1.521077E1,7.710732E0,7.9340043E0,2.6726133E1,7.79307E1,2.7828138E1,5.123322E1],"tree_param":{"num_deleted":"0","num_feature":"25","num_nodes":"39","size_leaf_vector":"1"}},{"base_weights":[6.299217E-4,-7.9176205E-1,9.99174E-1,7.371547E-1,-8.563769E-1,1.005792E0,-7.105875E-2,9.748309E-2,2.3504722E-1,-1.01464964E-1,-5.016728E-1,8.080032E-1,1.0148927E-1,9.401046E-2,6.7929976E-2,-1.664479E-1,-6.6967505E-1,-1.0309073E0,9.8578304E-2,-1.7033458E-2,5.9402056E-2,-4.7055814E-1,5.951051E-2,-7.777757E-1,-5.2161413E-1,-1.2680356E-1,-2.6191277E-2,1.5685588E-2,-5.458611E-2,4.8755623E-2,-6.3400514E-2,9.204965E-2,-5.5185137E-3,-5.5092584E-2,-8.4912695E-2,-2.9772772E-2,-6.3871644E-2],"categories":[0,1,2,3,4,5,6,7,8,9,10,11,12,13,14,15,16,17,18,19,20,21,22,27,28,29,30,31,32,33,34,35,37,38,39,40,41,42,43,44,0,1,2,3,4,5,6,7,8,9,10,11,12,13,14,15,16,17,18,19,20,21,22,23,24,25,26,27,28,29,30,0,1,2,3,4,5,6,7,8,9,10,11,12,13,14,15,16,17,18,19,20,21,22,23,24,25,26,0,1,2,3,4,5,6,7,8,9,10,13,14,15,16,17,18,19,21,22,23,24,25,26,27,28,29,30,31,32,33,34,35,36,37,38,39,40,41,42,43,44,27,28,29,30,31,32,40,41,42,43,44,31,32,33,34,35],"categories_nodes":[8,10,17,19,22,23,24],"categories_segments":[0,23,40,71,98,140,151],"categories_sizes":[23,17,31,27,42,11,5],"default_left":[0,0,0,0,0,0,0,0,1,0,1,0,0,0,0,0,0,1,0,1,0,0,1,1,1,0,0,0,0,0,0,0,0,0,0,0,0],"id":34,"left_children":[1,3,5,7,9,11,-1,-1,13,-1,15,17,-1,19,-1,21,23,25,-1,27,-1,29,31,33,35,-1,-1,-1,-1,-1,-1,-1,-1,-1,-1,-1,-1],"loss_changes":[1.2385021E3,8.684833E1,8.551086E0,4.058098E0,4.6525024E1,4.225464E-1,0E0,0E0,7.4186695E-1,0E0,1.4557854E1,1.254674E1,0E0,6.165095E-1,0E0,6.0948787E0,2.3661575E0,3.2398343E-1,0E0,9.968147E-1,0E0,6.2205067E0,5.140506E0,1.1194382E0,1.8055038E0,0E0,0E0,0E0,0E0,0E0,0E0,0E0,0E0,0E0,0E0,0E0,0E0],"parents":[2147483647,0,0,1,1,2,2,3,3,4,4,5,5,8,8,10,10,11,11,13,13,15,15,16,16,17,17,19,19,21,21,22,22,23,23,24,24],"right_children":[2,4,6,8,10,12,-1,-1,14,-1,16,18,-1,20,-1,22,24,26,-1,28,-1,30,32,34,36,-1,-1,-1,-1,-1,-1,-1,-1,-1,-1,-1,-1],"split_conditions":[3.7E2,1.7071E4,1.866E4,1.5E4,1.7071E4,7.4E2,-7.105875E-2,9.748309E-2,1E-45,-1.01464964E-1,1E-45,9.12E2,1.0148927E-1,7.3E2,6.7929976E-2,2.73E2,4.56E2,1E-45,9.8578304E-2,1E-45,5.9402056E-2,4.004E3,1E-45,1E-45,1E-45,-1.2680356E-1,-2.6191277E-2,1.5685588E-2,-5.458611E-2,4.8755623E-2,-6.3400514E-2,9.204965E-2,-5.5185137E-3,-5.5092584E-2,-8.4912695E-2,-2.9772772E-2,-6.3871644E-2],"split_indices":[14,24,24,24,23,14,0,0,0,0,0,13,0,13,0,13,13,0,0,0,0,1,0,0,0,0,0,0,0,0,0,0,0,0,0,0,0],"split_type":[0,0,0,0,0,0,0,0,1,0,1,0,0,0,0,0,0,1,0,1,0,0,1,1,1,0,0,0,0,0,0,0,0,0,0,0,0],"sum_hessian":[1.5632709E3,8.717238E2,6.9154706E2,3.492479E1,8.36799E2,6.892907E2,2.2563477E0,2.3065224E1,1.1859567E1,5.773284E2,2.5947058E2,3.4269928E1,6.5502075E2,9.921428E0,1.9381385E0,8.728879E1,1.721818E2,2.5980072E0,3.167192E1,8.908854E0,1.0125742E0,3.6748135E1,5.054065E1,9.7062485E1,7.51193E1,1.4896913E0,1.1083158E0,7.233666E0,1.6751877E0,5.066386E0,3.168175E1,5.11539E0,4.542526E1,2.5311134E1,7.175135E1,2.7014015E1,4.8105286E1],"tree_param":{"num_deleted":"0","num_feature":"25","num_nodes":"37","size_leaf_vector":"1"}},{"base_weights":[6.7576155E-4,-7.771527E-1,9.9675095E-1,-3.3470175E-1,-1.0128883E-1,1.0035576E0,-6.944503E-2,7.1624106E-1,-4.758933E-1,7.960827E-1,1.01314865E-1,9.6932314E-2,2.216793E-1,-1.5245047E-1,-6.452778E-1,-9.8765707E-1,9.812364E-2,-3.983845E-2,4.352479E-1,-3.4456834E-1,1.7430596E-1,-7.575307E-1,-4.9531066E-1,-1.2193544E-1,-2.4899498E-2,-2.6093055E-2,4.184102E-2,-2.3609484E-3,5.6404054E-2,-9.072381E-3,-9.913415E-2,4.7748964E-2,-1.5867256E-2,-5.2492548E-2,-8.329501E-2,-2.7670417E-2,-6.134827E-2],"categories":[27,28,29,30,31,32,33,34,35,37,38,39,40,41,42,43,44,0,1,2,3,4,5,6,7,8,9,10,11,12,13,14,15,16,17,18,19,20,21,22,23,24,25,26,27,28,29,30,31,0,1,2,3,4,5,6,7,8,9,10,11,12,13,14,15,16,17,18,19,20,21,22,23,24,25,26,27,28,29,30,13,14,22,23,24,25,26,16,17,25,26,27,28,29,30,31,32,40,41,42,43,44,31,32,33,34,35],"categories_nodes":[8,12,15,19,20,21,22],"categories_segments":[0,17,49,80,87,91,102],"categories_sizes":[17,32,31,7,4,11,5],"default_left":[0,0,0,0,0,0,0,0,1,0,0,0,1,0,0,1,0,0,0,1,1,1,1,0,0,0,0,0,0,0,0,0,0,0,0,0,0],"id":35,"left_children":[1,3,5,7,-1,9,-1,11,13,15,-1,-1,17,19,21,23,-1,25,27,29,31,33,35,-1,-1,-1,-1,-1,-1,-1,-1,-1,-1,-1,-1,-1,-1],"loss_changes":[1.1098052E3,8.355362E1,7.927124E0,4.204802E1,0E0,4.390869E-1,0E0,4.001749E0,1.3509796E1,